SVM-light Version V6.02
0 # kernel type
3 # kernel parameter -d 
1 # kernel parameter -g 
1 # kernel parameter -s 
1 # kernel parameter -r 
empty# kernel parameter -u 
214 # highest feature index 
6875 # number of training documents 
4296 # number of support vectors plus 1 
0.59718267 # threshold b, each following line is a SV (starting with alpha*y)
-0.95451030572829854 11:0.66518188 12:0.49606168 59:0.001484781 60:0.00066424691 #
0.95451030572829854 3:0.11123819 4:-0.059052151 11:0.21308614 12:0.15890972 71:0.027809547 72:-0.078257918 89:0.019141637 90:0.10800236 91:0.00018058147 92:5.6490295e-005 93:0.033949316 94:-0.16481492 #
-0.95451030572829854 67:0.082405344 68:-0.46961942 89:0.91536748 90:5.1647544 93:0.0022271716 94:-0.010812326 #
0.95451030572829854 3:0.040089086 4:-0.021281783 9:0.00049492699 10:-7.9574704e-005 11:0.17767879 12:0.13250457 13:0.00049492699 14:-0.00026240392 21:0.00049492699 22:-0.00033696517 25:0.00049492699 26:0.00064855017 27:0.00098985399 28:-0.00098976155 51:0.00049492699 52:0.00011908665 59:0.00049492699 60:0.00022141563 63:0.00049492699 64:-0.00014446802 #
-0.95451030572829854 #
-0.95451030572829854 3:0.20935412 4:-0.11113819 7:0.0008908686 8:0.00011234297 9:0.0008908686 10:-0.00014323446 11:0.12383074 12:0.092347197 13:0.0053452114 14:-0.0028339622 15:0.0008908686 16:-0.00081704016 17:0.0008908686 18:0.0010611839 19:0.0062360801 20:-0.00095088332 21:0.0062360801 22:-0.0042457609 23:0.0026726057 24:0.00086717395 25:0.0026726057 26:0.0035021708 27:0.0044543431 28:-0.0044539273 31:0.0017817372 32:0.00096658862 33:0.0008908686 34:-0.00078235875 35:0.0008908686 36:3.7060952e-005 37:0.0008908686 38:0.00076107169 41:0.0008908686 42:-0.00057476322 43:0.0008908686 44:-0.00061826233 49:0.0026726057 50:0.00027743864 55:0.0008908686 56:-0.00060688559 57:0.0008908686 58:-0.00043087424 63:0.02494432 64:-0.0072811884 #
-0.95451030572829854 3:0.07126949 4:-0.037834279 11:0.080520816 12:0.060048677 55:0.0020558506 56:-0.0014005052 67:0.14253898 68:-0.81231469 89:0.16104163 90:0.90864104 197:0.0041117012 198:0.0011172728 #
0.95451030572829854 11:0.080717489 12:0.060195345 93:0.41853511 94:-2.031877 #
0.95451030572829854 3:0.12068965 4:-0.064069577 67:0.41379312 68:-2.3581636 #
-0.95451030572829854 67:0.0040089088 68:-0.02284635 89:0.017371938 90:0.098017231 93:0.0040089088 94:-0.019462187 103:0.55322939 104:0.58078438 105:0.0093541201 106:-0.0030305895 107:0.0053452114 108:-0.0039431415 111:0.0026726057 112:0.00012641476 131:0.0013363028 132:0.0040339986 149:0.0026726057 150:0.015508495 #
-0.95451030572829854 67:0.022908049 68:-0.13055058 89:0.83423483 90:4.7069817 #
-0.95451030572829854 3:0.66397852 4:-0.3524811 69:0.025546614 70:0.081813015 71:0.02015231 72:-0.056709941 #
-0.95451030572829854 13:0.22222222 14:-0.11781935 97:0.11111111 98:-0.0068175057 #
-0.95451030572829854 49:0.16 50:0.016609326 185:0.059999999 186:0.0050045564 #
-0.95451030572829854 15:0.17460318 16:-0.16013339 103:0.079365082 104:0.083318055 #
-0.95451030572829854 19:0.34329161 20:-0.052345425 29:0.0015359804 30:-0.001437829 #
-0.95451030572829854 35:0.2254902 36:0.0093805995 157:0.15686275 158:0.029222719 #
-0.95451030572829854 35:0.29347825 36:0.012208966 155:0.30434781 156:0.22179626 #
0.95451030572829854 3:0.13808464 4:-0.073303916 11:0.19524871 12:0.1456074 67:0.27616927 68:-1.5738597 89:0.39049742 90:2.2032933 #
0.95451030572829854 3:0.5 4:-0.26543111 67:0.40000001 68:-2.2795582 #
0.95451030572829854 3:0.0155902 4:-0.0082762484 11:0.15107647 12:0.11266579 67:0.046770602 68:-0.26654077 89:0.4532294 90:2.5572445 #
-0.95451030572829854 67:0.095768377 68:-0.54577392 89:0.90423161 90:5.1019225 #
0.95451030572829854 27:0.13580246 28:-0.1357898 133:0.23868313 134:0.33983064 #
-0.95451030572829854 3:0.19256757 4:-0.10222685 69:0.4695946 70:1.5038764 #
-0.95451030572829854 3:0.0031816736 4:-0.0016890303 11:0.71110404 12:0.53030831 #
-0.95451030572829854 11:0.71428573 12:0.53268105 #
0.95451030572829854 67:0.0092798816 68:-0.05288507 89:0.82405347 90:4.6495357 #
-0.95451030572829854 67:0.18708241 68:-1.0661631 71:0.0022271716 72:-0.0062674088 89:0.80178171 90:4.5238724 103:0.0022271716 104:0.0023381014 185:0.0022271716 186:0.00018576675 187:0.0022271716 188:-0.0017594162 199:0.0022271716 200:-0.0063342121 #
-0.95451030572829854 3:0.0022271716 4:-0.0011823212 11:0.1644395 12:0.12263132 67:0.0089086862 68:-0.050769668 89:0.65478843 90:3.6944957 91:0.001484781 92:0.00046447577 93:0.001484781 94:-0.0072082174 #
0.95451030572829854 3:0.0022857813 4:-0.001213435 11:0.076661587 12:0.057170644 67:0.0060954168 68:-0.03473714 89:0.20443089 90:1.1534551 #
0.95451030572829854 3:0.078431375 4:-0.041636251 67:0.3137255 68:-1.7878886 #
0.95451030572829854 3:0.37750557 4:-0.20040345 11:0.12249443 12:0.091350645 67:0.37750557 68:-2.1513646 89:0.12249443 90:0.69114715 #
-0.95451030572829854 39:0.17647059 40:-0.0081615075 167:0.019607844 168:-0.005308372 #
-0.95451030572829854 3:0.43504083 4:-0.23094675 11:0.23014106 12:0.17162849 13:0.001484781 14:-0.00078721176 #
0.95451030572829854 67:0.3749072 68:-2.1365569 89:0.45842612 90:2.586566 #
0.95451030572829854 67:0.021380845 68:-0.1218472 89:0.77861917 90:4.3931828 #
0.95451030572829854 3:0.7939778 4:-0.42149282 69:0.013470681 70:0.043139849 #
-0.95451030572829854 21:0.3899371 22:-0.26548404 119:0.025157232 120:-0.0061734738 #
0.95451030572829854 17:0.20560747 18:0.24491529 113:0.15887851 114:0.13655308 #
-0.95451030572829854 67:0.12806237 68:-0.72981399 89:0.70341498 90:3.9688601 93:0.0018559763 94:-0.0090102721 #
-0.95451030572829854 67:0.16518189 68:-0.94135427 89:0.66815144 90:3.7698936 #
0.95451030572829854 3:0.3888889 4:-0.20644642 71:0.18518518 72:-0.52112347 #
-0.95451030572829854 3:0.02895323 4:-0.015370175 9:0.0017817372 10:-0.00028646892 11:0.020044543 12:0.014948287 19:0.0017817372 20:-0.00027168094 21:0.0004454343 22:-0.00030326864 27:0.0004454343 28:-0.00044539271 29:0.092650332 30:-0.086729847 59:0.0004454343 60:0.00019927406 63:0.053452116 64:-0.015602547 #
0.95451030572829854 3:0.020044543 4:-0.010640891 11:0.14662212 12:0.10934395 67:0.10022271 68:-0.57115877 89:0.73311061 90:4.1364112 #
-0.95451030572829854 67:0.10207869 68:-0.58173579 89:0.73125464 90:4.1259389 #
0.75264642175891494 35:0.9382087 36:0.039030343 155:0.0032867708 156:0.0023952641 #
-0.95451030572829854 3:0.030289533 4:-0.016079569 11:0.16971047 12:0.12656216 67:0.0454343 68:-0.25892532 89:0.25456572 90:1.4363295 #
-0.95451030572829854 3:0.57575756 4:-0.30564794 #
-0.95451030572829854 3:0.16600791 4:-0.088127322 69:0.43478259 70:1.3923911 #
0.95451030572829854 3:0.14285715 4:-0.075837463 67:0.30952382 68:-1.7639438 #
-0.95451030572829854 11:0.16883117 12:0.12590642 93:0.1038961 94:-0.50438797 #
0.95451030572829854 11:0.16666667 12:0.12429224 89:0.27777779 90:1.5672984 #
-0.95451030572829854 55:0.34031415 56:-0.23183188 197:0.05235602 198:0.014226704 #
0.95451030572829854 3:0.1091314 4:-0.05793374 11:0.015868597 12:0.011834061 67:0.21826281 68:-1.2438569 89:0.031737193 90:0.17906995 #
-0.95451030572829854 3:0.61507934 4:-0.32652241 69:0.031419028 70:0.10061941 71:0.0042952592 72:-0.012087146 #
0.95451030572829854 53:0.21991701 54:0.18274368 193:0.012448133 194:0.0013100555 #
-0.95451030572829854 3:0.0051967334 4:-0.0027587495 11:0.16146994 12:0.12041676 67:0.020786934 68:-0.11846256 89:0.64439493 90:3.6358528 91:0.001484781 92:0.00046447577 #
-0.95451030572829854 67:0.085523382 68:-0.48738882 89:0.71447659 90:4.0312729 #
0.95451030572829854 3:0.10638298 4:-0.056474704 67:0.23404256 68:-1.333784 #
0.95451030572829854 67:0.030289533 68:-0.17261687 89:0.76971048 90:4.3429174 #
-0.95451030572829854 11:0.10810811 12:0.080621995 89:0.43243244 90:2.4399023 #
0.95451030572829854 3:0.25 4:-0.13271555 67:0.29166666 68:-1.6621778 #
0.95451030572829854 3:0.05701559 4:-0.030267423 11:0.042984411 12:0.032055773 67:0.34209353 68:-1.9495553 89:0.25790647 90:1.455179 #
-0.95451030572829854 21:0.26923078 22:-0.18330257 119:0.21794872 120:-0.05348365 #
-0.95451030572829854 3:0.63679248 4:-0.33804905 71:0.051886793 72:-0.14601289 #
0.95451030572829854 3:0.30022272 4:-0.1593769 11:0.099777281 12:0.074409254 67:0.30022272 68:-1.7109377 89:0.099777281 90:0.56297076 #
-0.95451030572829854 13:0.2525773 14:-0.13391323 95:0.00020664478 96:-0.00023949366 97:0.0045576654 98:-0.00027964718 99:0.00037884875 100:0.00084934541 101:1.1480265e-005 102:-1.212682e-006 #
0.95451030572829854 3:0.0061247214 4:-0.0032513833 9:0.0016703786 10:-0.00026856462 11:0.172049 12:0.12830614 13:0.0044543431 14:-0.0023616352 15:0.00055679289 16:-0.0005106501 25:0.00055679289 26:0.00072961894 27:0.00055679289 28:-0.00055674091 31:0.00055679289 32:0.00030205894 33:0.0094654793 34:-0.0083125615 35:0.0022271716 36:9.2652379e-005 41:0.035634745 42:-0.022990528 51:0.0027839644 52:0.00066986243 55:0.00055679289 56:-0.00037930347 57:0.012249443 58:-0.0059245205 63:0.00055679289 64:-0.00016252653 67:0.0011135858 68:-0.0063462085 71:0.00041759465 72:-0.0011751392 85:0.00041759465 86:-7.1280876e-005 89:0.03577394 90:0.20184639 91:0.0048719374 92:0.0015240611 93:0.0023663698 94:-0.011488097 95:0.00013919822 96:-0.00016132559 97:0.0006959911 98:-4.2704309e-005 99:0.00013919822 100:0.0003120701 101:0.00013919822 102:-1.470377e-005 103:0.00013919822 104:0.00014613134 127:0.00013919822 128:-0.00068074354 135:0.00013919822 136:-7.4145835e-005 149:0.00013919822 150:0.00080773415 151:0.0023663698 152:0.0010717867 155:0.00055679289 156:0.00040576787 169:0.0089086862 170:-0.0033097798 187:0.00041759465 188:-0.00032989055 191:0.00027839644 192:-0.00028479574 197:0.00013919822 198:3.7824339e-005 199:0.0015311803 200:-0.0043547708 201:0.0015311803 202:0.005134223 209:0.00013919822 210:-0.00060059741 #
0.95451030572829854 3:0.17567568 4:-0.09325958 67:0.24324325 68:-1.3862177 #
-0.95451030572829854 3:0.0042068795 4:-0.0022332733 11:0.10690423 12:0.0797242 67:0.025241276 68:-0.14384739 89:0.64142537 90:3.6190979 #
-0.95451030572829854 3:0.53846157 4:-0.28584889 #
0.95451030572829854 67:0.12650333 68:-0.72092927 89:0.67349666 90:3.8000526 #
0.95451030572829854 3:0.23333333 4:-0.12386785 67:0.23333333 68:-1.3297422 #
0.95451030572829854 11:0.17391305 12:0.12969625 89:0.2173913 90:1.2265813 #
-0.95451030572829854 67:0.029695621 68:-0.16923222 89:0.63697106 90:3.5939653 #
-0.95451030572829854 67:0.16889384 68:-0.96250826 89:0.66258353 90:3.7384777 93:0.0018559763 94:-0.0090102721 #
0.95451030572829854 3:0.40000001 4:-0.21234488 67:0.2 68:-1.1397791 #
-0.95451030572829854 3:0.0037119526 4:-0.0019705354 11:0.32962137 12:0.24581628 67:0.0055679288 68:-0.031731043 89:0.4933185 90:2.7834382 93:0.0011135858 94:-0.0054061632 #
0.95451030572829854 3:0.52264291 4:-0.27745137 11:0.14402376 12:0.10740621 67:0.26132146 68:-1.4892436 89:0.072011881 90:0.40631077 #
-0.95451030572829854 67:0.053006683 68:-0.30207953 89:0.64699334 90:3.6505136 #
0.95451030572829854 31:0.41074249 32:0.22282693 149:0.024486572 150:0.14208975 #
-0.95451030572829854 3:0.001484781 4:-0.00078821415 11:0.66221231 12:0.49384713 29:0.001484781 30:-0.0013899014 49:0.001484781 50:0.00015413258 #
0.95451030572829854 67:0.2345954 68:-1.3369346 89:0.43207127 90:2.4378645 #
0.95451030572829854 3:0.0860245 4:-0.045667157 7:0.0008351893 8:0.00010532153 9:0.0008351893 10:-0.00013428231 11:0.25139198 12:0.18747644 13:0.0050111357 14:-0.0026568396 15:0.0016703786 16:-0.0015319503 17:0.0025055679 18:0.0029845797 19:0.0008351893 20:-0.00012735045 21:0.0008351893 22:-0.00056862872 23:0.0041759466 24:0.0013549593 25:0.0041759466 26:0.0054721418 27:0.0008351893 28:-0.00083511136 29:0.0016703786 30:-0.001563639 31:0.0033407572 32:0.0018123536 33:0.0008351893 34:-0.00073346135 39:0.0008351893 40:-3.8626291e-005 43:0.0016703786 44:-0.0011592419 49:0.0016703786 50:0.00017339914 55:0.0008351893 56:-0.00056895521 59:0.0016703786 60:0.00074727775 63:0.0025055679 64:-0.00073136936 65:0.0008351893 66:-0.00068038469 #
0.95451030572829854 3:0.017181037 4:-0.0091207633 11:0.12567611 12:0.093723387 67:0.068724148 68:-0.39165172 89:0.50270444 90:2.8363962 #
0.95451030572829854 3:0.19512194 4:-0.10358287 67:0.23170732 68:-1.3204757 #
-0.95451030572829854 3:0.53750002 4:-0.28533843 67:0.0025055679 68:-0.014278969 69:0.0084632514 70:0.027103558 71:0.0015311803 72:-0.0043088435 #
-0.95451030572829854 3:0.4562732 4:-0.24221821 11:0.0072754268 12:0.0054256748 25:0.00311804 26:0.0040858658 #
-0.95451030572829854 11:0.63636363 12:0.47457036 #
-0.95451030572829854 55:0.28994083 56:-0.19751611 197:0.035502959 198:0.0096472204 #
0.95451030572829854 11:0.090909094 12:0.067795768 89:0.54545456 90:3.0776041 #
0.95451030572829854 3:0.13636364 4:-0.072390303 67:0.21590909 68:-1.2304432 #
-0.95451030572829854 67:0.19116555 68:-1.0894325 89:0.64216781 90:3.6232867 #
0.95451030572829854 3:0.14925373 4:-0.07923317 67:0.20149253 68:-1.1482848 #
0.95451030572829854 11:0.125 12:0.093219183 89:0.25 90:1.4105685 #
-0.95451030572829854 3:0.63043481 4:-0.334674 67:0.009513896 68:-0.054218695 69:0.014016655 70:0.044888329 71:0.009078145 72:-0.025546504 #
-0.95451030572829854 3:0.010393467 4:-0.0055174991 11:0.15553081 12:0.11598764 25:0.00037119526 26:0.00048641261 27:0.00037119526 28:-0.0003711606 67:0.041573867 68:-0.23692511 89:0.61915368 90:3.4934347 93:0.0029695621 94:-0.014416435 131:0.001484781 132:0.0044822209 135:0.001484781 136:-0.00079088897 #
-0.95451030572829854 3:0.050853748 4:-0.026996335 11:0.11581292 12:0.086367883 67:0.25426874 68:-1.4490509 89:0.57906461 90:3.267241 #
-0.95451030572829854 3:0.25256124 4:-0.13407522 7:0.0013363028 8:0.00016851445 9:0.0013363028 10:-0.00021485169 11:0.34342983 12:0.25611401 63:0.0013363028 64:-0.00039006365 #
0.95451030572829854 3:0.20588236 4:-0.10929517 67:0.22058824 68:-1.2571093 #
0.95451030572829854 3:0.077060133 4:-0.040908314 11:0.12293987 12:0.091682829 67:0.2311804 68:-1.3174728 89:0.36881959 90:2.0809813 #
-0.95451030572829854 41:0.35714287 42:-0.23041847 169:0.071428575 170:-0.026537342 #
0.95451030572829854 3:0.0008908686 4:-0.00047292848 11:0.19376393 12:0.14450011 19:0.0004454343 20:-6.7920235e-005 39:0.0017817372 40:-8.2402752e-005 41:0.0004454343 42:-0.00028738161 43:0.0004454343 44:-0.00030913117 51:0.0008908686 52:0.00021435598 59:0.0013363028 60:0.00059782219 67:0.0013363028 68:-0.0076154503 89:0.26659241 90:1.5041876 91:0.0026726057 92:0.00083605637 93:0.021380845 94:-0.10379833 115:0.00066815142 116:0.00058705319 167:0.0026726057 168:-0.00072354649 169:0.00066815142 170:-0.0002482335 171:0.00066815142 172:0.00039101238 187:0.00066815142 188:-0.00052782486 191:0.00066815142 192:-0.0006835098 203:0.0020044544 204:-0.00089802529 #
-0.95451030572829854 3:0.025983667 4:-0.013793748 11:0.30734965 12:0.22920707 67:0.051967334 68:-0.29615641 89:0.6146993 90:3.468302 #
0.95451030572829854 89:0.71428573 90:4.0301957 #
-0.95451030572829854 3:0.58291459 4:-0.30944732 67:0.034470797 68:-0.19644545 71:0.00070508441 72:-0.0019841546 #
0.4115974906827195 3:0.1143617 4:-0.060710307 69:0.30053192 70:0.96245325 #
0.95451030572829854 3:0.075723834 4:-0.040198922 11:0.12427617 12:0.092679381 67:0.2271715 68:-1.2946265 89:0.37282851 90:2.1036007 #
-0.95451030572829854 67:0.13028954 68:-0.74250638 89:0.61971045 90:3.4965763 #
0.95451030572829854 3:0.21826281 4:-0.11586748 11:0.031737193 12:0.023668122 67:0.21826281 68:-1.2438569 89:0.031737193 90:0.17906995 #
0.95451030572829854 3:0.0044543431 4:-0.0023646425 11:0.13808464 12:0.10297709 25:0.00031816735 26:0.00041692509 67:0.0089086862 68:-0.050769668 89:0.27489659 90:1.551042 93:0.0012726694 94:-0.0061784722 127:0.00063633471 128:-0.0031119704 #
-0.95451030572829854 63:0.40000001 64:-0.11675905 #
-0.95451030572829854 43:0.31481481 44:-0.21848132 171:0.055555556 172:0.032511957 #
0.95451030572829854 23:0.38478747 24:0.12485106 121:0.071588367 122:-0.044882562 #
0.95451030572829854 3:0.15812917 4:-0.083944805 11:0.34187081 12:0.25495136 67:0.15812917 68:-0.90116161 89:0.34187081 90:1.9289289 #
-0.95451030572829854 67:0.027998727 68:-0.15956181 89:0.54342985 90:3.0661802 #
-0.95451030572829854 3:0.012026726 4:-0.0063845343 11:0.5879733 12:0.43848309 67:0.0080178175 68:-0.045692701 89:0.39198217 90:2.2116709 #
0.95451030572829854 67:0.031922791 68:-0.18192464 89:0.30141056 90:1.7006409 #
-0.95451030572829854 3:0.01484781 4:-0.0078821415 11:0.15181886 12:0.11321944 67:0.059391242 68:-0.33846444 89:0.60430586 90:3.4096594 93:0.0029695621 94:-0.014416435 #
-0.95451030572829854 3:0.049443208 4:-0.026247531 11:0.15055679 12:0.11227825 67:0.19777283 68:-1.1270866 89:0.60222715 90:3.3979309 #
0.95451030572829854 67:0.052497614 68:-0.29917839 89:0.66178811 90:3.73399 #
0.95451030572829854 67:0.1172977 68:-0.66846728 89:0.54936898 90:3.0996902 #
-0.95451030572829854 3:0.0066815144 4:-0.0035469637 11:0.32665181 12:0.24360172 67:0.010022271 68:-0.057115875 89:0.48997772 90:2.7645886 #
0.95451030572829854 3:0.062806234 4:-0.033341456 11:0.13585746 12:0.10131617 13:0.0004454343 14:-0.00023616353 39:0.0004454343 40:-2.0600688e-005 57:0.0004454343 58:-0.00021543712 67:0.18708241 68:-1.0661631 71:0.0013363028 72:-0.0037604454 89:0.40757239 90:2.2996352 97:0.0013363028 98:-8.1992272e-005 167:0.0013363028 168:-0.00036177324 201:0.0013363028 202:0.0044807764 #
-0.95451030572829854 27:0.17619048 28:-0.17617403 135:0.24761905 136:-0.13189767 #
-0.95451030572829854 3:0.37282851 4:-0.19792058 11:0.18307349 12:0.13652769 15:0.0013363028 16:-0.0012255602 19:0.0013363028 20:-0.00020376072 27:0.0013363028 28:-0.0013361782 35:0.036080178 36:0.0015009686 41:0.0013363028 42:-0.00086214481 55:0.0026726057 56:-0.0018206567 #
0.95451030572829854 9:0.00055679289 10:-8.9521542e-005 11:0.24610245 12:0.18353175 13:0.00055679289 14:-0.0002952044 15:0.00055679289 16:-0.0005106501 29:0.00055679289 30:-0.00052121299 41:0.00055679289 42:-0.00035922701 43:0.00055679289 44:-0.00038641394 51:0.00055679289 52:0.00013397248 85:0.00027839644 86:-4.7520585e-005 89:0.11330735 90:0.63931113 91:0.0013919822 92:0.00043544604 93:0.0083518932 94:-0.040546224 99:0.00027839644 100:0.0006241402 103:0.00027839644 104:0.00029226267 137:0.00027839644 138:0.00016110761 169:0.00027839644 170:-0.00010343062 171:0.00027839644 172:0.00016292183 191:0.00027839644 192:-0.00028479574 #
-0.95451030572829854 3:0.015219005 4:-0.0080791945 11:0.15144767 12:0.11294261 67:0.060876019 68:-0.34692606 89:0.60430586 90:3.4096594 93:0.001484781 94:-0.0072082174 #
0.95451030572829854 35:0.16521738 36:0.0068731955 155:0.33913043 156:0.2471444 #
-0.95451030572829854 11:0.5714286 12:0.42614484 #
0.95451030572829854 67:0.014317531 68:-0.08159411 89:0.69996816 90:3.9494123 #
-0.95451030572829854 11:0.079800501 12:0.059511498 91:0.37157106 92:0.11623651 #
-0.95451030572829854 67:0.10155902 68:-0.57877421 71:0.0017817372 72:-0.0050139269 77:0.0017817372 78:-0.0019374205 89:0.60757238 90:3.4280899 91:0.0089086862 92:0.0027868545 93:0.010690423 94:-0.051899165 97:0.0017817372 98:-0.00010932303 133:0.058797326 134:0.08371406 149:0.0017817372 150:0.010338997 151:0.0017817372 152:0.00080699235 199:0.0035634744 200:-0.01013474 #
-0.95451030572829854 3:0.019302152 4:-0.010246783 11:0.14736451 12:0.10989759 67:0.077208608 68:-0.44000378 89:0.58945805 90:3.3258839 #
0.95451030572829854 3:0.02895323 4:-0.015370175 11:0.096046768 12:0.071627207 67:0.086859688 68:-0.49500427 89:0.2881403 90:1.6257666 #
-0.95451030572829854 3:0.40384614 4:-0.21438667 #
0.95451030572829854 17:0.23495702 18:0.27987584 113:0.20773639 114:0.17854552 #
-0.95451030572829854 11:0.63768119 12:0.47555292 89:0.015364256 90:0.086689338 93:0.013621252 94:-0.066127561 #
-0.95451030572829854 67:0.044097997 68:-0.25130984 89:0.55456573 90:3.1290116 145:0.0013363028 146:-0.0088361893 #
0.95451030572829854 3:0.10393467 4:-0.055174991 11:0.22939867 12:0.17107485 67:0.155902 68:-0.88846916 89:0.344098 90:1.9414952 #
0.95451030572829854 89:0.69999999 90:3.9495919 #
0.95451030572829854 3:0.041202672 4:-0.021872941 11:0.12546399 12:0.093565203 67:0.16481069 68:-0.93923885 89:0.50185597 90:2.831609 #
0.95451030572829854 19:0.21481481 20:-0.032755163 115:0.25925925 116:0.22779115 #
-0.95451030572829854 15:0.18934911 16:-0.1736573 105:0.147929 106:-0.047926698 #
-0.95451030572829854 3:0.03919822 4:-0.020808853 11:0.36080179 12:0.26906916 67:0.058797326 68:-0.33507982 89:0.53452116 90:3.0159149 93:0.0066815144 94:-0.032436978 #
0.95451030572829854 67:0.037119526 68:-0.21154028 89:0.29621381 90:1.6713195 #
0.95451030572829854 67:0.1844098 68:-1.0509322 89:0.4155902 90:2.3448739 #
-0.95451030572829854 67:0.05077951 68:-0.28938711 89:0.5492205 90:3.0988526 #
0.95451030572829854 57:0.38842976 58:-0.18786651 201:0.082644626 202:0.27711689 #
-0.95451030572829854 3:0.0063633472 4:-0.0033780606 11:0.55870187 12:0.41665384 15:0.0025453388 16:-0.0023344005 27:0.0012726694 28:-0.0012725507 31:0.0012726694 32:0.00069042045 33:0.0012726694 34:-0.0011176554 #
-0.95451030572829854 3:0.018262805 4:-0.0096950335 11:0.1817372 12:0.13553114 67:0.054788418 68:-0.31223345 89:0.54521155 90:3.0762331 #
-0.95451030572829854 3:0.0008908686 4:-0.00047292848 11:0.39910913 12:0.29763702 67:0.00066815142 68:-0.0038077252 89:0.29933184 90:1.6889123 #
-0.95451030572829854 15:0.35135135 16:-0.32223403 103:0.0448444 104:0.047077987 105:0.00020064609 106:-6.5006214e-005 #
-0.95451030572829854 3:0.004825538 4:-0.0025616959 11:0.16184112 12:0.12069358 67:0.014476615 68:-0.082500711 89:0.48552337 90:2.7394559 #
0.95451030572829854 3:0.030190546 4:-0.01602702 11:0.080920562 12:0.06034679 67:0.12076218 68:-0.68821102 89:0.32368225 90:1.826304 #
0.95451030572829854 3:0.021317214 4:-0.011316503 11:0.12153993 12:0.090638824 67:0.10658606 68:-0.60742283 89:0.60769963 90:3.428808 #
-0.95451030572829854 67:0.095025986 68:-0.54154313 89:0.57015592 90:3.2169759 93:0.001484781 94:-0.0072082174 #
0.95451030572829854 11:0.2 12:0.14915068 89:0.26666668 90:1.5046064 #
0.95451030572829854 25:0.36363637 26:0.47650748 127:0.0039337054 128:-0.019237636 131:0.030698329 132:0.092671365 #
-0.95451030572829854 3:0.001979708 4:-0.0010509522 11:0.1091314 12:0.081385121 67:0.0079188319 68:-0.045128595 89:0.43652561 90:2.4629972 #
0.95451030572829854 3:0.0454343 4:-0.024119353 9:0.0004454343 10:-7.1617229e-005 11:0.15233853 12:0.11360698 21:0.0008908686 22:-0.00060653727 25:0.0004454343 26:0.00058369513 35:0.0004454343 36:1.8530476e-005 67:0.085523382 68:-0.48738882 69:0.0044543431 70:0.014265031 71:0.0008908686 72:-0.0025069634 85:0.0008908686 86:-0.00015206587 89:0.30289534 90:1.7090185 93:0.0017817372 94:-0.0086498614 119:0.0017817372 120:-0.00043723042 127:0.0008908686 128:-0.0043567587 155:0.0008908686 156:0.00064922863 #
0.95451030572829854 3:0.10334076 4:-0.054859705 11:0.29665923 12:0.22123465 67:0.10334076 68:-0.58892816 89:0.29665923 90:1.6738328 #
-0.95451030572829854 3:0.025612472 4:-0.013596694 11:0.1410542 12:0.10519166 67:0.10244989 68:-0.58385116 89:0.56273198 90:3.1750882 93:0.001484781 94:-0.0072082174 #
0.95451030572829854 89:0.66666669 90:3.7615161 #
-0.95451030572829854 55:0.28846154 56:-0.19650838 197:0.067307696 198:0.018289521 #
0.95451030572829854 11:0.18181819 12:0.13559154 89:0.27272728 90:1.538802 #
0.95451030572829854 3:0.0022271716 4:-0.0011823212 11:0.1644395 12:0.12263132 67:0.0044543431 68:-0.025384834 89:0.328879 90:1.8556254 #
-0.95451030572829854 3:0.0091314027 4:-0.0048475168 11:0.0908686 12:0.067765571 67:0.054788418 68:-0.31223345 89:0.54521155 90:3.0762331 #
0.95451030572829854 23:0.27777779 24:0.09012989 121:0.02217273 122:-0.013901266 125:4.9492701e-005 126:1.1092727e-005 #
0.95451030572829854 3:0.038816418 4:-0.020606169 11:0.10404073 12:0.07758873 67:0.15526567 68:-0.88484275 89:0.41616291 90:2.3481052 #
-0.95451030572829854 15:0.18497109 16:-0.16964211 105:0.12716763 106:-0.041200336 #
0.95451030572829854 3:0.013363029 4:-0.0070939274 11:0.18485524 12:0.13785642 13:0.0008908686 14:-0.00047232705 15:0.0004454343 16:-0.00040852008 55:0.0004454343 56:-0.00030344279 67:0.026726058 68:-0.152309 89:0.36881959 90:2.0809813 93:0.0008908686 94:-0.0043249307 97:0.0017817372 98:-0.00010932303 103:0.0008908686 104:0.00093524053 197:0.0008908686 198:0.00024207577 #
0.95451030572829854 3:0.0015908368 4:-0.00084451516 11:0.1412663 12:0.10534984 67:0.0025453388 68:-0.014505619 69:0.00063633471 70:0.0020378616 89:0.27998728 90:1.579765 91:0.00063633471 92:0.00019906105 93:0.0019090042 94:-0.0092677083 #
-0.95451030572829854 3:0.01081769 4:-0.0057427031 11:0.27489659 12:0.20500508 67:0.016226536 68:-0.092473321 89:0.4123449 90:2.3265629 #
0.95451030572829854 3:0.044097997 4:-0.023409961 11:0.155902 12:0.11626446 67:0.13229398 68:-0.75392956 89:0.46770602 90:2.6389256 #
-0.95451030572829854 3:0.02895323 4:-0.015370175 11:0.30438009 12:0.22699252 67:0.048255384 68:-0.27500236 89:0.5073002 90:2.8623266 #
-0.95451030572829854 67:0.054788418 68:-0.31223345 89:0.542539 90:3.0611537 91:0.0013363028 92:0.00041802818 93:0.0013363028 94:-0.0064873956 #
0.95451030572829854 3:0.10155902 4:-0.053913847 11:0.29844099 12:0.22256339 67:0.10155902 68:-0.57877421 89:0.29844099 90:1.6838858 #
0.95451030572829854 3:0.025241276 4:-0.01339964 11:0.14142539 12:0.10546847 67:0.050482552 68:-0.28769478 89:0.28285077 90:1.5959216 #
-0.95451030572829854 3:0.02895323 4:-0.015370175 11:0.13771343 12:0.10270027 67:0.11581292 68:-0.66000569 89:0.55085373 90:3.1080678 #
-0.95451030572829854 3:0.063697107 4:-0.033814386 11:0.13630289 12:0.10164835 67:0.25478843 68:-1.4520125 89:0.54521155 90:3.0762331 #
-0.95451030572829854 25:0.26851851 26:0.35186547 127:0.16666667 128:-0.81507689 #
0.95451030572829854 3:0.015272033 4:-0.0081073456 11:0.12758511 12:0.095147036 67:0.076360166 68:-0.43516859 89:0.63792557 90:3.5993507 #
0.95451030572829854 11:0.1 12:0.074575342 89:0.30000001 90:1.6926823 #
-0.95451030572829854 3:0.0311804 4:-0.016552497 11:0.093819596 12:0.069966286 67:0.18708241 68:-1.0661631 89:0.56291759 90:3.1761353 #
-0.95451030572829854 67:0.04454343 68:-0.25384834 89:0.52688515 90:2.9728303 #
-0.95451030572829854 3:0.054565702 4:-0.02896687 11:0.4454343 12:0.33218417 67:0.054565702 68:-0.31096423 89:0.4454343 90:2.5132625 #
0.95451030572829854 67:0.072160356 68:-0.41123432 69:0.0008908686 70:0.0028530061 71:0.0008908686 72:-0.0025069634 89:0.32516703 90:1.8346815 93:0.0008908686 94:-0.0043249307 #
0.95451030572829854 3:0.020044543 4:-0.010640891 11:0.14662212 12:0.10934395 67:0.040089086 68:-0.2284635 89:0.29324424 90:1.6545644 #
0.95451030572829854 3:0.042761691 4:-0.022700567 11:0.1572383 12:0.11726101 67:0.12828508 68:-0.73108321 89:0.47171491 90:2.6615448 #
0.95451030572829854 3:0.097995542 4:-0.052022133 11:0.30200446 12:0.22522086 67:0.097995542 68:-0.55846632 89:0.30022272 90:1.6939389 93:0.0017817372 94:-0.0086498614 #
-0.95451030572829854 3:0.0054088449 4:-0.0028713515 11:0.1374483 12:0.10250254 67:0.016226536 68:-0.092473321 89:0.41139039 90:2.3211772 93:0.00095450209 94:-0.0046338541 #
0.95451030572829854 67:0.097550109 68:-0.55592787 89:0.50244987 90:2.83496 #
-0.95451030572829854 3:0.058351893 4:-0.030976815 11:0.14164811 12:0.10563456 67:0.17505568 68:-0.99762398 89:0.42494431 90:2.3976524 #
-0.95451030572829854 57:0.48120302 58:-0.23273687 199:0.04450994 200:-0.12658899 201:0.00060284341 202:0.0020214028 #
-0.95451030572829854 3:0.013734224 4:-0.0072909808 11:0.15293244 12:0.1140499 67:0.041202672 68:-0.23480971 89:0.45879734 90:2.5886602 #
0.95451030572829854 11:0.1 12:0.074575342 89:0.30000001 90:1.6926823 #
0.95451030572829854 67:0.047512993 68:-0.27077156 89:0.61915368 90:3.4934347 #
-0.95451030572829854 3:0.0311804 4:-0.016552497 11:0.16881961 12:0.12589779 67:0.093541205 68:-0.53308153 89:0.49977729 90:2.8198805 91:0.0013363028 92:0.00041802818 93:0.0053452114 94:-0.025949582 #
-0.95451030572829854 67:0.078841873 68:-0.44931155 89:0.52115816 90:2.9405169 #
0.95451030572829854 67:0.061370946 68:-0.34974658 89:0.38307351 90:2.1614056 #
0.95451030572829854 67:0.013363029 68:-0.0761545 89:0.65330362 90:3.6861181 #
0.95451030572829854 3:0.02190052 4:-0.011626159 11:0.14476615 12:0.10795985 67:0.043801039 68:-0.24961753 89:0.2895323 90:1.6336205 #
-0.95451030572829854 3:0.03600594 4:-0.019114193 11:0.13066073 12:0.09744069 67:0.14402376 68:-0.82077628 89:0.52264291 90:2.9488945 #
-0.95451030572829854 3:0.10066815 4:-0.053440917 11:0.29933184 12:0.22322775 67:0.15100223 68:-0.86054587 89:0.44632515 90:2.5182889 91:0.0013363028 92:0.00041802818 93:0.0013363028 94:-0.0064873956 #
0.95451030572829854 67:0.094877504 68:-0.54069698 89:0.50512248 90:2.8500395 #
0.95451030572829854 89:0.66666669 90:3.7615161 #
-0.95451030572829854 3:0.02494432 4:-0.013241998 11:0.075055681 12:0.055973031 67:0.17461024 68:-0.99508548 89:0.52538973 90:2.9643929 #
-0.95451030572829854 11:0.048152983 12:0.035910252 25:0.055295292 26:0.072458707 89:0.081099764 90:0.45758709 91:0.00081918953 92:0.00025626249 93:0.0036863529 94:-0.017896265 127:0.098302744 128:-0.48074576 #
-0.95451030572829854 67:0.023385301 68:-0.13327038 89:0.47327393 90:2.6703413 93:0.0033407572 94:-0.016218489 #
-0.95451030572829854 7:0.17171717 8:0.021654392 77:0.12121212 78:-0.1318033 #
0.95451030572829854 11:0.14285715 12:0.10653621 89:0.2857143 90:1.6120783 #
-0.95451030572829854 3:0.0038469327 4:-0.0020421911 11:0.087062158 12:0.064926907 67:0.019234663 68:-0.10961632 89:0.43531078 90:2.4561429 #
-0.95451030572829854 3:0.016332591 4:-0.0086703552 11:0.15033408 12:0.11211216 67:0.048997771 68:-0.27923316 89:0.45100224 90:2.5446782 #
0.95451030572829854 3:0.036377136 4:-0.019311246 11:0.13028954 12:0.097163871 67:0.1091314 68:-0.62192845 89:0.3908686 90:2.2053878 #
0.95451030572829854 67:0.081514478 68:-0.46454245 89:0.51848555 90:2.9254375 #
0.95451030572829854 3:0.034298442 4:-0.018207747 7:0.0013363028 8:0.00016851445 9:0.0004454343 10:-7.1617229e-005 11:0.15857461 12:0.11825756 15:0.0004454343 16:-0.00040852008 19:0.0004454343 20:-6.7920235e-005 23:0.0013363028 24:0.00043358697 25:0.0004454343 26:0.00058369513 31:0.0004454343 32:0.00024164715 33:0.0004454343 34:-0.00039117938 41:0.0008908686 42:-0.00057476322 43:0.0004454343 44:-0.00030913117 63:0.0004454343 64:-0.00013002122 67:0.065033406 68:-0.37061858 69:0.0008908686 70:0.0028530061 71:0.0026726057 72:-0.0075208908 77:0.0026726057 78:-0.0029061306 85:0.0008908686 86:-0.00015206587 89:0.31447661 90:1.7743633 93:0.0026726057 94:-0.012974791 103:0.0008908686 104:0.00093524053 117:0.0008908686 118:-0.00021071601 121:0.0026726057 122:-0.001675599 131:0.0008908686 132:0.0026893325 145:0.0008908686 146:-0.0058907927 151:0.0008908686 152:0.00040349617 169:0.0017817372 170:-0.00066195597 171:0.0008908686 172:0.00052134984 209:0.0008908686 210:-0.0038438232 #
0.95451030572829854 3:0.066815145 4:-0.035469636 11:0.21889915 12:0.16324478 67:0.10022271 68:-0.57115877 89:0.32834873 90:1.8526335 #
0.95451030572829854 89:0.49888641 90:2.8148539 93:0.0011135858 94:-0.0054061632 #
0.95451030572829854 3:0.0077094398 4:-0.0040926505 11:0.069213636 12:0.051616307 67:0.038547199 68:-0.21967645 89:0.3452116 90:1.9477783 93:0.00085660443 94:-0.0041585872 #
0.95451030572829854 3:0.32071269 4:-0.17025426 11:0.1792873 12:0.13370413 67:0.24053451 68:-1.3707811 89:0.13446549 90:0.75869107 #
-0.95451030572829854 11:0.71428573 12:0.53268105 89:0.19280942 90:1.0878836 91:0.0025453388 92:0.00079624419 93:0.090359531 94:-0.43867153 #
0.95451030572829854 3:0.83878243 4:-0.4452779 67:0.011273957 68:-0.064249098 #
-0.95451030572829854 3:0.0021817191 4:-0.0011581922 11:0.05904277 12:0.044031352 67:0.0021817191 68:-0.012433388 89:0.058360983 90:0.32928866 91:0.00013635744 92:4.2655938e-005 93:0.00054542976 94:-0.0026479166 #
-0.95451030572829854 11:0.14469655 12:0.10790795 21:0.074053451 22:-0.05041841 89:0.082683742 90:0.46652433 119:0.042316258 120:-0.010384222 #
0.95451030572829854 11:0.10697675 12:0.079778276 93:0.31627908 94:-1.5354509 #
-0.95451030572829854 11:0.21167883 12:0.15786022 93:0.094890513 94:-0.46066824 #
0.95451030572829854 19:0.24324325 20:-0.037089959 115:0.35135135 116:0.30870536 #
0.95451030572829854 23:0.43309501 24:0.1405253 121:0.015321757 122:-0.0096060261 #
0.95451030572829854 31:0.37349397 32:0.20261967 145:0.096385539 146:-0.6373412 #
-0.95451030572829854 11:0.18165368 12:0.13546886 17:0.0008351893 18:0.00099485985 23:0.0050111357 24:0.0016259511 89:0.002412769 90:0.013613504 93:0.078322195 94:-0.38023347 113:0.00037119526 114:0.00031903532 121:0.0022271716 122:-0.0013963325 #
0.95451030572829854 3:0.16627906 4:-0.088271275 71:0.29186046 72:-0.82131481 #
0.95451030572829854 3:0.0013198053 4:-0.00070063479 11:0.14682834 12:0.10949774 67:0.0016497567 68:-0.0094017899 89:0.18353543 90:1.0355572 #
-0.95451030572829854 3:0.0031816736 4:-0.0016890303 11:0.2825326 12:0.21069968 #
0.95451030572829854 55:0.54282868 56:-0.36979067 197:0.014940239 198:0.0040597119 #
0.95451030572829854 35:0.22807017 36:0.0094879288 155:0.30701753 156:0.22374183 #
0.95451030572829854 3:0.0029695621 4:-0.0015764283 63:0.66369712 64:-0.19373162 #
-0.95451030572829854 11:0.5714286 12:0.42614484 89:0.065701559 90:0.3707062 93:0.0057270122 94:-0.027803125 #
0.95451030572829854 41:0.52525252 42:-0.33887807 169:0.063973062 170:-0.023767451 #
-0.95451030572829854 3:0.0086802579 4:-0.0046080211 11:0.19644795 12:0.14650173 67:0.004340129 68:-0.02473394 89:0.082462452 90:0.46527576 91:0.015761521 92:0.0049305889 #
-0.95451030572829854 67:0.017260579 68:-0.098366231 69:0.0013919822 70:0.0044578221 77:0.0016703786 78:-0.0018163316 85:0.00027839644 86:-4.7520585e-005 89:0.071547881 90:0.40369278 91:0.0027839644 92:0.00087089208 93:0.0097438749 94:-0.047303926 97:0.0008351893 98:-5.124517e-005 99:0.0011135858 100:0.0024965608 103:0.0013919822 104:0.0014613133 113:0.00027839644 114:0.0002392765 115:0.0022271716 116:0.001956844 119:0.0013919822 120:-0.00034158627 121:0.001948775 122:-0.0012217909 127:0.0027839644 128:-0.013614871 131:0.00055679289 132:0.0016808327 133:0.00055679289 134:0.00079274678 135:0.00027839644 136:-0.00014829167 137:0.0011135858 138:0.00064443046 145:0.00055679289 146:-0.0036817454 149:0.00055679289 150:0.0032309366 151:0.00027839644 152:0.00012609255 155:0.00055679289 156:0.00040576787 167:0.00027839644 168:-7.5369426e-005 169:0.00027839644 170:-0.00010343062 191:0.0008351893 192:-0.00085438724 193:0.00027839644 194:2.9298755e-005 197:0.00027839644 198:7.5648677e-005 199:0.00027839644 200:-0.00079177652 203:0.00055679289 204:-0.00024945146 209:0.00027839644 210:-0.0012011948 211:0.0008351893 212:0.0043854523 #
0.95451030572829854 31:0.39295393 32:0.21317667 145:0.048780486 146:-0.32255682 #
0.95451030572829854 19:0.64068693 20:-0.097692542 115:0.023778072 116:0.020891959 #
-0.95451030572829854 3:0.018040089 4:-0.0095768021 7:0.00022271715 8:2.8085742e-005 11:0.079955459 12:0.059627056 13:0.0004454343 14:-0.00023616353 15:0.00022271715 16:-0.00020426004 17:0.00022271715 18:0.00026529597 19:0.00022271715 20:-3.3960117e-005 21:0.00022271715 22:-0.00015163432 39:0.00022271715 40:-1.0300344e-005 41:0.00022271715 42:-0.00014369081 67:0.016926503 68:-0.096462369 69:0.0011135858 70:0.0035662577 77:0.00022271715 78:-0.00024217756 89:0.07639198 90:0.43102449 91:0.00022271715 92:6.9671361e-005 93:0.0033407572 94:-0.016218489 97:0.0004454343 98:-2.7330758e-005 105:0.00022271715 106:-7.2156894e-005 113:0.00022271715 114:0.00019142119 117:0.00022271715 118:-5.2679003e-005 119:0.00022271715 120:-5.4653803e-005 167:0.00022271715 168:-6.0295541e-005 169:0.00022271715 170:-8.2744496e-005 #
0.95451030572829854 15:0.60000002 16:-0.55027658 103:0.090301678 104:0.094799384 105:0.00020247014 106:-6.5597182e-005 107:0.00040494028 108:-0.00029872285 #
-0.95451030572829854 3:0.019766146 4:-0.010493101 11:0.096046768 12:0.071627207 13:0.00027839644 14:-0.0001476022 15:0.0008351893 16:-0.00076597516 17:0.00027839644 18:0.00033161996 19:0.00055679289 20:-8.4900297e-005 21:0.00027839644 22:-0.0001895429 23:0.00055679289 24:0.00018066124 25:0.0016703786 26:0.0021888567 27:0.00027839644 28:-0.00027837045 31:0.0008351893 32:0.0004530884 39:0.0008351893 40:-3.8626291e-005 43:0.0008351893 44:-0.00057962094 49:0.00055679289 50:5.7799716e-005 51:0.00055679289 52:0.00013397248 57:0.00027839644 58:-0.0001346482 59:0.00027839644 60:0.00012454629 63:0.00027839644 64:-8.1263264e-005 #
0.95451030572829854 39:0.15533981 40:-0.00718424 167:0.36893204 168:-0.099879853 #
-0.95451030572829854 3:0.0026996017 4:-0.0014331166 11:0.11304583 12:0.084304318 27:0.035769723 28:-0.035766385 67:0.0016197611 68:-0.0092308484 89:0.067827493 90:0.38270131 133:0.00040494028 134:0.0005765431 135:0.021056894 136:-0.011216243 #
-0.95451030572829854 3:0.0052497615 4:-0.0027868999 11:0.063633472 12:0.047454882 15:0.00015908368 16:-0.00014590003 25:0.00063633471 26:0.00083385018 33:0.00015908368 34:-0.00013970693 43:0.0015908368 44:-0.0011040398 67:0.0050906776 68:-0.029011238 71:0.00015908368 72:-0.00044767206 89:0.06188355 90:0.34916395 91:0.00015908368 92:4.9765262e-005 93:0.0015908368 94:-0.0077230902 103:0.00015908368 104:0.00016700724 127:0.00063633471 128:-0.0031119704 151:0.00015908368 152:7.2052884e-005 171:0.0015908368 172:0.00093098189 #
-0.95451030572829854 3:0.00165743 4:-0.00087986694 11:0.08701507 12:0.064891793 13:0.097374007 14:-0.051626444 67:0.00062153622 68:-0.0035420698 89:0.032630652 90:0.18411109 97:0.036515255 98:-0.0022404864 #
-0.95451030572829854 3:0.00058100128 4:-0.00030843163 11:0.26028857 12:0.19411109 67:0.00019366709 68:-0.0011036884 89:0.078822501 90:0.44473818 93:0.0079403501 94:-0.038548294 #
0.95451030572829854 27:0.11111111 28:-0.11110074 133:0.25925925 134:0.36912638 #
-0.95451030572829854 67:0.023385301 68:-0.13327038 69:0.0027839644 70:0.0089156441 71:0.0016703786 72:-0.0047005569 77:0.0011135858 78:-0.0012108878 85:0.00055679289 86:-9.504117e-005 89:0.069042318 90:0.38955566 91:0.0013919822 92:0.00043544604 93:0.0058463253 94:-0.028382357 95:0.00027839644 96:-0.00032265118 97:0.0013919822 98:-8.5408617e-005 99:0.00055679289 100:0.0012482804 103:0.0011135858 104:0.0011690507 115:0.0011135858 116:0.000978422 117:0.0008351893 118:-0.00019754625 119:0.0008351893 120:-0.00020495176 121:0.0008351893 122:-0.00052362471 127:0.0011135858 128:-0.0054459483 131:0.00027839644 132:0.00084041635 133:0.00027839644 134:0.00039637339 135:0.0008351893 136:-0.00044487504 137:0.0013919822 138:0.00080553809 145:0.0008351893 146:-0.0055226181 149:0.00055679289 150:0.0032309366 155:0.00055679289 156:0.00040576787 167:0.00055679289 168:-0.00015073885 169:0.00027839644 170:-0.00010343062 171:0.00027839644 172:0.00016292183 181:0.00027839644 182:3.2314372e-005 185:0.00055679289 186:4.6441688e-005 187:0.0008351893 188:-0.0006597811 191:0.0008351893 192:-0.00085438724 197:0.00027839644 198:7.5648677e-005 199:0.00055679289 200:-0.001583553 201:0.0008351893 202:0.0028004851 203:0.00055679289 204:-0.00024945146 209:0.00027839644 210:-0.0012011948 211:0.00027839644 212:0.0014618173 #
-0.95451030572829854 55:0.29166666 56:-0.1986918 197:0.083333336 198:0.02264417 #
0.95451030572829854 3:0.37777779 4:-0.20054795 67:0.016827518 68:-0.095898263 69:0.0018559763 70:0.0059437626 71:0.036872063 72:-0.10376044 #
-0.95451030572829854 3:0.0017430037 4:-0.00092529488 11:0.11068074 12:0.082540542 29:0.0017430037 30:-0.0016316234 35:0.015396534 36:0.00064050994 57:0.00058100128 58:-0.00028100493 59:0.00029050064 60:0.00012996135 67:0.00077466836 68:-0.0044147535 69:0.00038733418 70:0.0012404375 89:0.059262127 90:0.33437318 91:0.00019366709 92:6.0583796e-005 93:0.014331364 94:-0.069574967 137:0.0011620026 138:0.00067244918 155:0.010070688 156:0.0073391059 157:0.00019366709 158:3.6079178e-005 201:0.00038733418 202:0.0012987758 203:0.00019366709 204:-8.6765729e-005 #
-0.95451030572829854 3:0.0454343 4:-0.024119353 11:0.15456571 12:0.1152679 67:0.02271715 68:-0.12946266 89:0.077282853 90:0.43605101 #
0.95451030572829854 3:0.20608108 4:-0.10940066 71:0.13851352 72:-0.38978624 #
0.95451030572829854 25:0.39115646 26:0.51256973 127:0.031710681 128:-0.15507986 131:0.012507007 132:0.037755847 #
-0.95451030572829854 3:0.002109952 4:-0.0011200937 7:0.00070331729 8:8.8691821e-005 11:0.067870118 12:0.050614376 13:0.00070331729 14:-0.00037288977 17:0.00070331729 18:0.00083777675 19:0.00035165864 20:-5.3621239e-005 21:0.078068219 22:-0.05315182 23:0.00035165864 24:0.00011410184 25:0.0028132692 26:0.0036864956 27:0.00035165864 28:-0.00035162584 31:0.00035165864 32:0.00019077407 35:0.00035165864 36:1.4629323e-005 49:0.00035165864 50:3.6505084e-005 51:0.00035165864 52:8.4614199e-005 57:0.00035165864 58:-0.00017008193 59:0.00035165864 60:0.00015732163 63:0.0014066346 64:-0.00041059332 65:0.00035165864 66:-0.00028647776 67:0.0014066346 68:-0.0080162631 77:0.00046887822 78:-0.00050984748 89:0.042433478 90:0.23942131 91:0.00070331729 92:0.00022001483 93:0.002109952 94:-0.010243257 99:0.00046887822 100:0.0010511836 113:0.00046887822 114:0.00040299198 115:0.00023443911 116:0.00020598358 119:0.052045479 120:-0.012771731 121:0.00023443911 122:-0.00014698238 127:0.0016410737 128:-0.008025608 131:0.00023443911 132:0.00070771907 135:0.00023443911 136:-0.0001248772 145:0.00023443911 146:-0.0015502087 157:0.00023443911 158:4.3674794e-005 185:0.00023443911 186:1.9554394e-005 191:0.00023443911 192:-0.00023982799 199:0.00023443911 200:-0.00066675915 203:0.00023443911 204:-0.0001050322 209:0.00046887822 210:-0.002023065 211:0.00046887822 212:0.002462008 213:0.00023443911 214:-9.7445642e-005 #
0.95451030572829854 3:0.484375 4:-0.25713637 67:0.015451002 68:-0.088053644 69:0.024220491 70:0.077566102 71:0.0072035077 72:-0.02027115 #
-0.95451030572829854 67:0.054406617 68:-0.31005761 69:0.0015908368 70:0.0050946539 71:0.0012726694 72:-0.0035813765 77:0.00031816735 78:-0.00034596794 85:0.00031816735 86:-5.4309239e-005 87:0.00031816735 88:0.00060961256 89:0.074132994 90:0.41827866 91:0.00063633471 92:0.00019906105 93:0.0041361758 94:-0.020080036 115:0.00063633471 116:0.00055909832 117:0.00031816735 118:-7.5255717e-005 121:0.00095450209 122:-0.00059842825 145:0.00031816735 146:-0.0021038544 151:0.00063633471 152:0.00028821154 155:0.00095450209 156:0.0006956021 157:0.00031816735 158:5.9272934e-005 185:0.00063633471 186:5.3076215e-005 191:0.00031816735 192:-0.00032548085 211:0.00031816735 212:0.0016706483 213:0.00031816735 214:-0.00013224766 #
0.95451030572829854 39:0.17857143 40:-0.0082586687 167:0.2857143 168:-0.077350564 #
-0.95451030572829854 3:0.018472422 4:-0.0098063108 11:0.069762871 12:0.052025903 67:0.012314948 68:-0.070181601 89:0.046377569 90:0.26167497 93:0.00013101009 94:-0.00063601922 #
-0.95451030572829854 3:0.035931699 4:-0.019074783 11:0.069487751 12:0.051820729 13:0.012175204 14:-0.006455136 17:0.00029695619 18:0.00035372796 19:0.0008908686 20:-0.00013584047 23:0.0017817372 24:0.00057811599 27:0.0008908686 28:-0.00089078542 29:0.00029695619 30:-0.00027798029 31:0.0044543431 32:0.0024164715 35:0.00029695619 36:1.2353651e-005 39:0.00059391238 40:-2.7467584e-005 51:0.00029695619 52:7.1451992e-005 57:0.00029695619 58:-0.00014362474 59:0.0056421678 60:0.0025241382 67:0.035634745 68:-0.20307867 71:0.00029695619 72:-0.0008356545 89:0.069190793 90:0.39039344 93:0.00029695619 94:-0.0014416435 97:0.012175204 98:-0.00074704073 113:0.00029695619 114:0.00025522825 115:0.00059391238 116:0.0005218251 117:0.00029695619 118:-7.0238668e-005 121:0.0017817372 122:-0.001117066 133:0.00059391238 134:0.00084559654 135:0.00029695619 136:-0.00015817779 137:0.00029695619 138:0.00017184812 145:0.0029695621 146:-0.019635975 149:0.001484781 150:0.0086158309 155:0.00029695619 156:0.00021640953 167:0.00059391238 168:-0.00016078811 191:0.00029695619 192:-0.00030378212 201:0.00029695619 202:0.00099572807 203:0.0056421678 204:-0.002527775 #
0.95451030572829854 55:0.21296297 56:-0.14507656 197:0.17592593 198:0.047804359 #
0.95451030572829854 3:0.36170211 4:-0.19201399 67:0.019902384 68:-0.1134216 69:0.015542814 70:0.04977585 71:0.0071079941 72:-0.020002369 #
-0.95451030572829854 3:0.022271715 4:-0.011823212 11:0.066612676 12:0.049676631 15:0.00020247014 16:-0.00018569095 19:0.00020247014 20:-3.0872834e-005 21:0.00020247014 22:-0.00013784938 23:0.00020247014 24:6.5695e-005 31:0.00040494028 32:0.00021967922 33:0.00020247014 34:-0.0001778088 37:0.00020247014 38:0.00017297085 41:0.00020247014 42:-0.000130628 43:0.00020247014 44:-0.00014051417 67:0.021866774 68:-0.12461646 69:0.00020247014 70:0.00064841047 71:0.00020247014 72:-0.00056976447 89:0.064183034 90:0.36213827 91:0.00020247014 92:6.3337604e-005 93:0.0022271716 94:-0.010812326 103:0.00020247014 104:0.00021255466 115:0.00020247014 116:0.00017789491 119:0.00020247014 120:-4.9685277e-005 121:0.00020247014 122:-0.00012693933 145:0.00020247014 146:-0.0013388165 149:0.00020247014 150:0.001174886 151:0.00020247014 152:9.1703674e-005 161:0.00020247014 162:9.6170688e-006 169:0.00020247014 170:-7.522227e-005 171:0.00020247014 172:0.0001184886 #
0.95451030572829854 41:0.16176471 42:-0.10436601 169:0.19117647 170:-0.071026415 #
0.95451030572829854 19:0.26066351 20:-0.039746214 115:0.032140933 116:0.028239764 117:0.0010344209 118:-0.00024467026 #
-0.95451030572829854 3:0.024498885 4:-0.013005533 11:0.058277655 12:0.04346076 17:0.00018559763 18:0.00022107997 29:0.00018559763 30:-0.00017373767 63:0.00018559763 64:-5.4175507e-005 67:0.023570899 68:-0.13432808 69:0.00018559763 70:0.0005943763 71:0.00074239052 72:-0.0020891363 89:0.057349667 90:0.32358253 91:0.00018559763 92:5.8059471e-005 93:0.00074239052 94:-0.0036041087 113:0.00018559763 114:0.00015951766 137:0.00018559763 138:0.00010740507 209:0.00018559763 210:-0.00080079655 #
0.95451030572829854 3:0.33333334 4:-0.17695408 67:0.0074239052 68:-0.042308055 69:0.024795843 70:0.079408668 71:0.0011135858 72:-0.0031337044 #
0.95451030572829854 39:0.18032786 40:-0.0083399015 167:0.18032786 168:-0.04881962 #
0.95451030572829854 35:0.22857143 36:0.0095087811 155:0.27142859 156:0.19780605 #
0.95451030572829854 3:0.34659091 4:-0.18399201 67:0.0038975501 68:-0.02221173 71:0.035875179 72:-0.10095514 #
0.95451030572829854 55:0.18461539 56:-0.12576537 197:0.061538462 198:0.016721848 #
-0.95451030572829854 3:0.15384616 4:-0.081671111 69:0.3956044 70:1.2669228 #
-0.95451030572829854 3:0.28323698 4:-0.15035982 69:0.35260117 70:1.129205 #
0.95451030572829854 25:0.33333334 26:0.43679851 127:0.44444445 128:-2.1735384 #
0.95451030572829854 11:0.310559 12:0.23160045 93:0.27329192 94:-1.3267597 #
0.95451030572829854 25:0.42253521 26:0.55368829 127:0.28873238 128:-1.4120346 #
0.95451030572829854 39:0.56929636 40:-0.026329128 167:0.038379531 168:-0.010390375 #
-0.95451030572829854 67:0.02895323 68:-0.16500142 89:0.47104678 90:2.6577749 #
0.95451030572829854 27:0.12060302 28:-0.12059176 133:0.34170854 134:0.48651546 #
0.95451030572829854 3:0.087602079 4:-0.046504635 11:0.079064585 12:0.058962688 67:0.26280624 68:-1.4977052 89:0.23608018 90:1.3320291 93:0.0011135858 94:-0.0054061632 #
0.95451030572829854 3:0.027839644 4:-0.014779015 11:0.21937639 12:0.1636007 25:0.0011135858 26:0.0014592379 31:0.00055679289 32:0.00030205894 41:0.00055679289 42:-0.00035922701 43:0.00055679289 44:-0.00038641394 #
0.95451030572829854 3:0.11655531 4:-0.061874811 11:0.21677803 12:0.16166297 67:0.11655531 68:-0.66423649 89:0.21677803 90:1.223121 #
-0.95451030572829854 13:0.31092438 14:-0.16484809 95:0.022533735 96:-0.026115766 97:0.0052404036 98:-0.00032153833 99:0.005614718 100:0.012587702 101:0.00022458872 102:-2.3723729e-005 #
0.95451030572829854 3:0.53750002 4:-0.28533843 69:0.1 70:0.32024994 #
0.95451030572829854 3:0.4509804 4:-0.23940845 69:0.098039217 70:0.31397054 #
-0.95451030572829854 63:0.56 64:-0.16346268 209:0.010690423 210:-0.046125881 211:0.069309577 212:0.36393404 #
0.95451030572829854 3:0.00074239052 4:-0.00039410708 11:0.16592428 12:0.1237386 67:0.001484781 68:-0.0084616113 89:0.33184856 90:1.8723805 #
-0.95451030572829854 67:0.074832961 68:-0.42646521 87:0.0013363028 88:0.0025603729 89:0.51581293 90:2.910358 97:0.0026726057 98:-0.00016398454 103:0.0013363028 104:0.0014028609 127:0.0013363028 128:-0.0065351375 131:0.0013363028 132:0.0040339986 169:0.0013363028 170:-0.00049646699 #
0.95451030572829854 3:0.15625 4:-0.082947224 67:0.1875 68:-1.0685428 #
0.95451030572829854 7:0.12585033 8:0.015870355 81:0.35034013 82:0.12333519 #
0.95451030572829854 67:0.16216215 68:-0.92414516 #
-0.95451030572829854 11:0.39821827 12:0.29697263 57:0.0017817372 58:-0.00086174847 89:0.30556792 90:1.724098 91:0.0035634744 92:0.0011147418 93:0.08908686 94:-0.43249306 201:0.0017817372 202:0.0059743687 #
0.82125453046202179 19:0.17256637 20:-0.026313081 115:0.57964599 116:0.50929028 #
-0.95451030572829854 67:0.13808464 68:-0.78692985 89:0.52709723 90:2.9740272 93:0.001484781 94:-0.0072082174 #
0.95451030572829854 11:0.19767442 12:0.14741638 93:0.26744187 94:-1.2983593 #
-0.95451030572829854 13:0.29545453 14:-0.15664619 #
-0.95451030572829854 35:0.125 36:0.005200115 155:0.625 156:0.45547447 #
0.95451030572829854 3:0.39130434 4:-0.2077287 69:0.094202898 70:0.30168474 #
-0.95451030572829854 3:0.6134454 4:-0.32565498 71:0.075630255 72:-0.21282856 #
-0.95451030572829854 67:0.088195994 68:-0.50261968 89:0.51180398 90:2.8877385 #
0.95451030572829854 3:0.0059391242 4:-0.0031528566 11:0.16072755 12:0.11986312 67:0.017817372 68:-0.10153934 89:0.48218262 90:2.7206066 #
-0.95451030572829854 13:0.25899279 14:-0.13731465 97:0.10791367 98:-0.0066213184 #
0.95451030572829854 3:0.12713751 4:-0.067492507 17:0.0069457553 18:0.0082736369 63:0.0015099468 64:-0.00044074989 67:0.13951908 68:-0.79510462 69:0.00041523535 70:0.001329791 71:0.03487977 72:-0.098153993 113:0.0095504131 114:0.0082084006 209:0.0008304707 210:-0.0035832252 211:0.0012457061 212:0.0065410133 #
0.95451030572829854 23:0.5 24:0.1622338 121:0.046875 122:-0.029388437 #
-0.95451030572829854 3:0.035189308 4:-0.018680675 11:0.16481069 12:0.12290814 67:0.10556793 68:-0.60162055 89:0.49443206 90:2.7897213 #
0.95451030572829854 3:0.31460676 4:-0.16701284 69:0.078651689 70:0.25188199 #
-0.95451030572829854 3:0.57894737 4:-0.30734128 67:0.0027546594 68:-0.015698515 69:0.00058609777 70:0.0018769777 71:0.022975033 72:-0.06465327 #
-0.95451030572829854 11:0.20833333 12:0.1553653 89:0.375 90:2.1158528 #
0.95451030572829854 67:0.20638455 68:-1.1761639 89:0.12694877 90:0.7162798 #
-0.95451030572829854 3:0.10105791 4:-0.053647824 7:0.0029231627 8:0.00036862536 9:0.016703786 10:-0.0026856461 11:0.0029231627 12:0.0021799586 13:0.0020879733 14:-0.0011070165 15:0.0041759466 16:-0.0038298757 17:0.0012527839 18:0.0014922898 19:0.0050111357 20:-0.00076410268 21:0.0020879733 22:-0.0014215717 23:0.0066815144 24:0.002167935 25:0.0075167036 26:0.0098498557 27:0.0008351893 28:-0.00083511136 29:0.00041759465 30:-0.00039090976 31:0.0008351893 32:0.0004530884 33:0.0008351893 34:-0.00073346135 35:0.00041759465 36:1.7372322e-005 37:0.00041759465 38:0.00035675237 39:0.0012527839 40:-5.7939436e-005 41:0.0008351893 42:-0.00053884054 43:0.00041759465 44:-0.00028981047 47:0.00041759465 48:-0.00014773282 49:0.0012527839 50:0.00013004936 51:0.0020879733 52:0.00050239684 55:0.0012527839 56:-0.00085343281 57:0.0050111357 58:-0.0024236676 59:0.0008351893 60:0.00037363888 63:0.01712138 64:-0.0049976907 65:0.0008351893 66:-0.00068038469 67:0.046770602 68:-0.26654077 69:0.0010439866 70:0.0033433666 71:0.0027143653 72:-0.0076384046 77:0.0012527839 78:-0.0013622488 83:0.00020879733 84:4.0924671e-005 85:0.0029231627 86:-0.00049896614 87:0.0054287305 88:0.010401514 89:0.00062639196 90:0.0035342753 91:0.00020879733 92:6.5316905e-005 93:0.00062639196 94:-0.0030409668 97:0.0008351893 98:-5.124517e-005 99:0.00020879733 100:0.00046810517 103:0.0018791759 104:0.0019727731 107:0.00020879733 108:-0.00015402897 113:0.00062639196 114:0.00053837214 115:0.0016703786 116:0.0014676331 117:0.0008351893 118:-0.00019754625 119:0.0010439866 120:-0.0002561897 121:0.0031319598 122:-0.0019635926 123:0.00020879733 124:5.409147e-006 127:0.00020879733 128:-0.0010211152 131:0.0035495546 132:0.010715309 133:0.00041759465 134:0.00059456006 137:0.00020879733 138:0.00012083071 149:0.00041759465 150:0.0024232024 151:0.00041759465 152:0.00018913882 155:0.00020879733 156:0.00015216296 161:0.00020879733 162:9.9176023e-006 167:0.00062639196 168:-0.00016958121 169:0.00041759465 170:-0.00015514593 171:0.00020879733 172:0.00012219137 181:0.00020879733 182:2.423578e-005 185:0.00062639196 186:5.2246898e-005 187:0.00041759465 188:-0.00032989055 189:0.00020879733 190:7.0321344e-006 191:0.00041759465 192:-0.00042719362 197:0.00062639196 198:0.00017020952 199:0.0010439866 200:-0.0029691621 201:0.0014615813 202:0.004900849 203:0.00041759465 204:-0.0001870886 209:0.0050111357 210:-0.021621507 211:0.0035495546 212:0.018638171 213:0.00041759465 214:-0.00017357504 #
-0.95451030572829854 3:0.0004454343 4:-0.00023646424 9:0.0004454343 10:-7.1617229e-005 11:0.0026726057 12:0.001993105 19:0.0004454343 20:-6.7920235e-005 25:0.0008908686 26:0.0011673903 43:0.0004454343 44:-0.00030913117 55:0.0004454343 56:-0.00030344279 63:0.19376393 64:-0.056559231 65:0.0004454343 66:-0.00036287183 69:0.0004454343 70:0.0014265031 87:0.0004454343 88:0.0008534576 89:0.0017817372 90:0.01005305 91:0.0008908686 92:0.00027868545 117:0.0004454343 118:-0.00010535801 127:0.0008908686 128:-0.0043567587 171:0.0004454343 172:0.00026067492 197:0.0004454343 198:0.00012103788 209:0.11670379 210:-0.50354087 211:0.077060133 212:0.40463105 213:0.0004454343 214:-0.00018514672 #
0.95451030572829854 3:0.067928731 4:-0.036060795 11:0.098737933 12:0.073634155 67:0.20378619 68:-1.1613561 89:0.29621381 90:1.6713195 #
0.95451030572829854 63:0.35714287 64:-0.10424916 209:0.047300879 210:-0.20408872 211:0.00031816735 212:0.0016706483 #
-0.95451030572829854 3:0.088195994 4:-0.046819922 11:0.51046771 12:0.38068306 41:0.0013363028 42:-0.00086214481 #
0.95451030572829854 3:0.1640683 4:-0.08709766 11:0.16926503 12:0.12622999 67:0.24498886 68:-1.3961658 69:0.0011135858 70:0.0035662577 89:0.25278395 90:1.4262764 93:0.0011135858 94:-0.0054061632 #
-0.95451030572829854 63:0.58385092 64:-0.17042471 209:0.012616027 210:-0.05443427 211:0.0060175131 212:0.031597044 #
0.95451030572829854 11:0.17269076 12:0.12878473 91:0.2811245 92:0.087942608 #
0.95451030572829854 3:0.12620638 4:-0.066998199 11:0.20712695 12:0.15446563 67:0.18930958 68:-1.0788554 89:0.30957684 90:1.7467173 93:0.0011135858 94:-0.0054061632 #
0.95451030572829854 15:0.25 16:-0.2292819 103:0.38636363 104:0.40560743 #
-0.95451030572829854 35:0.93893969 36:0.039060753 155:0.012431445 156:0.0090595288 #
-0.95451030572829854 21:0.1 22:-0.068083808 119:0.2 120:-0.049079116 #
0.95451030572829854 3:0.14847811 4:-0.078821413 11:0.18485524 12:0.13785642 67:0.22271715 68:-1.2692417 89:0.27728286 90:1.5645058 #
-0.95451030572829854 3:0.037861917 4:-0.020099461 9:0.0004454343 10:-7.1617229e-005 11:0.16080178 12:0.11991848 21:0.0004454343 22:-0.00030326864 51:0.0004454343 52:0.00010717799 67:0.11358575 68:-0.64731324 87:0.0013363028 88:0.0025603729 89:0.48240533 90:2.7218633 119:0.0013363028 120:-0.00032792281 187:0.0013363028 188:-0.0010556497 #
-0.95451030572829854 3:0.12293987 4:-0.065264128 11:0.47572383 12:0.35477269 27:0.0013363028 28:-0.0013361782 67:0.081959911 68:-0.46708095 89:0.31536749 90:1.7793897 93:0.0017817372 94:-0.0086498614 133:0.0008908686 134:0.0012683949 #
-0.95451030572829854 3:0.5714286 4:-0.30334985 67:8.248783e-005 68:-0.00047008952 69:0.00032995132 70:0.0010566689 71:0.036624599 72:-0.10306406 #
-0.95451030572829854 11:0.57015592 12:0.42519572 63:0.0012726694 64:-0.00037148921 89:0.18326439 90:1.0340279 91:0.010181355 92:0.0031849768 93:0.091632195 94:-0.44485 209:0.00063633471 210:-0.0027455881 #
-0.95451030572829854 3:0.0066815144 4:-0.0035469637 11:0.0011135858 12:0.0008304604 15:0.0022271716 16:-0.0020426004 21:0.0011135858 22:-0.00075817161 31:0.48775056 32:0.26460361 35:0.0011135858 36:4.6326189e-005 #
0.95451030572829854 3:0.0017817372 4:-0.00094585697 7:0.00029695619 8:3.7447655e-005 9:0.00029695619 10:-4.7744819e-005 11:0.11551596 12:0.086146429 13:0.00059391238 14:-0.0003148847 15:0.0011878248 16:-0.0010893869 17:0.0011878248 18:0.0014149118 21:0.00029695619 22:-0.0002021791 25:0.00029695619 26:0.00038913009 27:0.00059391238 28:-0.00059385697 29:0.0017817372 30:-0.0016678816 31:0.001484781 32:0.00080549048 39:0.0026726057 40:-0.00012360413 41:0.0032665182 42:-0.0021074652 47:0.00029695619 48:-0.00010505445 49:0.00029695619 50:3.0826515e-005 51:0.00029695619 52:7.1451992e-005 55:0.00029695619 56:-0.00020229518 57:0.00029695619 58:-0.00014362474 59:0.00059391238 60:0.00026569876 67:0.00059391238 68:-0.0033846444 71:0.0029695621 72:-0.0083565451 77:0.00059391238 78:-0.00064580684 87:0.00059391238 88:0.0011379435 89:0.042167779 90:0.23792218 91:0.0011878248 92:0.00037158062 93:0.18767631 94:-0.91111869 95:0.00059391238 96:-0.00068832253 97:0.00059391238 98:-3.6441012e-005 103:0.0017817372 104:0.0018704811 105:0.00059391238 106:-0.00019241839 113:0.0023756495 114:0.002041826 119:0.00059391238 120:-0.00014574347 127:0.00059391238 128:-0.0029045057 133:0.00059391238 134:0.00084559654 135:0.00059391238 136:-0.00031635558 137:0.0035634744 138:0.0020621775 145:0.0023756495 146:-0.01570878 149:0.00059391238 150:0.0034463322 167:0.0053452114 168:-0.001447093 169:0.0065330365 170:-0.0024271719 181:0.00059391238 182:6.8937334e-005 185:0.00059391238 186:4.9537801e-005 191:0.00059391238 192:-0.00060756423 197:0.00059391238 198:0.00016138384 201:0.00059391238 202:0.0019914561 203:0.0011878248 204:-0.00053216313 #
-0.95451030572829854 3:0.048383381 4:-0.02568491 11:0.055064894 12:0.041064836 67:0.11289456 68:-0.64337426 89:0.12848476 90:0.7249462 #
0.95451030572829854 39:0.62989324 40:-0.029131645 167:0.0094899172 168:-0.0025691765 #
0.95451030572829854 11:0.21428572 12:0.15980431 89:0.11904762 90:0.67169929 #
-0.95451030572829854 63:0.50561798 64:-0.1475887 209:0.031530742 210:-0.13604543 211:0.013413078 212:0.070430033 #
-0.95451030572829854 3:0.0066815144 4:-0.0035469637 9:0.0011135858 10:-0.00017904308 11:0.47438753 12:0.35377613 19:0.0044543431 20:-0.00067920238 35:0.0011135858 36:4.6326189e-005 41:0.011135858 42:-0.0071845404 49:0.0011135858 50:0.00011559943 #
0.95451030572829854 31:0.37564102 32:0.20378445 149:0.042307694 150:0.24550147 #
0.95451030572829854 11:0.038718522 12:0.02887447 51:0.038204558 52:0.0091925738 93:0.16261779 94:-0.78946614 187:0.16045915 188:-0.12675917 #
0.95451030572829854 3:0.060133629 4:-0.031922672 11:0.25538233 12:0.19045225 13:0.0022271716 14:-0.0011808176 15:0.00074239052 16:-0.00068086683 19:0.00074239052 20:-0.0001132004 21:0.00074239052 22:-0.00050544774 23:0.001484781 24:0.0004817633 25:0.00074239052 26:0.00097282522 29:0.0022271716 30:-0.002084852 31:0.0022271716 32:0.0012082357 35:0.00074239052 36:3.0884126e-005 43:0.00074239052 44:-0.00051521859 47:0.00074239052 48:-0.00026263614 51:0.00074239052 52:0.00017862998 55:0.00074239052 56:-0.00050573796 57:0.001484781 58:-0.00071812369 65:0.001484781 66:-0.0012095728 #
-0.95451030572829854 63:0.5 64:-0.14594883 209:0.026010182 210:-0.11222591 211:0.0097041046 212:0.050954774 #
-0.95451030572829854 3:0.58454108 4:-0.31031078 71:0.048309177 72:-0.13594525 #
-0.95451030572829854 27:0.027027028 28:-0.027024504 133:0.35135135 134:0.50024462 #
0.95451030572829854 57:0.22340426 58:-0.10805088 201:0.08510638 202:0.28537142 #
0.95451030572829854 19:0.23660421 20:-0.036077634 31:0.11633696 32:0.063112549 115:0.080571204 116:0.070791714 117:0.037730906 118:-0.0089244423 145:0.0027512119 146:-0.018192153 149:0.055417266 150:0.3215732 #
-0.95451030572829854 3:0.0022271716 4:-0.0011823212 11:0.48106903 12:0.3587589 13:0.0011135858 14:-0.0005904088 21:0.0011135858 22:-0.00075817161 25:0.0011135858 26:0.0014592379 31:0.0022271716 32:0.0012082357 43:0.0011135858 44:-0.00077282789 57:0.0055679288 58:-0.0026929639 59:0.0033407572 60:0.0014945555 63:0.0011135858 64:-0.00032505306 #
0.95451030572829854 3:0.23251671 4:-0.12343433 11:0.16659243 12:0.12423687 35:0.0008908686 36:3.7060952e-005 67:0.23251671 68:-1.3250884 89:0.16570155 90:0.9349336 93:0.0008908686 94:-0.0043249307 155:0.0008908686 156:0.00064922863 #
0.95451030572829854 11:0.25806451 12:0.19245251 93:0.25806451 94:-1.2528347 #
-0.95451030572829854 3:0.54062498 4:-0.28699738 69:0.076562501 70:0.24519137 #
0.95451030572829854 3:0.079545453 4:-0.042227678 67:0.125 68:-0.71236187 #
-0.95451030572829854 3:0.54216868 4:-0.28781688 67:0.00010733357 68:-0.00061168271 71:0.023989052 72:-0.06750679 #
-0.95451030572829854 27:0.14285715 28:-0.14284381 133:0.42857143 134:0.61018848 #
0.95451030572829854 3:0.21094495 4:-0.11198271 11:0.21762647 12:0.1622957 67:0.21094495 68:-1.2021532 89:0.21762647 90:1.2279083 #
0.95451030572829854 3:0.21678321 4:-0.11508202 71:0.090909094 72:-0.25582424 #
0.95451030572829854 3:0.10054088 4:-0.053373359 11:0.18453707 12:0.13761915 27:0.00063633471 28:-0.00063627533 67:0.15081133 68:-0.85945797 89:0.27680561 90:1.5618131 133:0.00095450209 134:0.0013589945 #
-0.95451030572829854 3:0.0016197611 4:-0.00085986999 11:0.18019842 12:0.13438359 67:0.0024296416 68:-0.013846273 89:0.27029762 90:1.5250933 #
0.95451030572829854 3:0.12026726 4:-0.063845344 11:0.16544703 12:0.12338269 67:0.18040089 68:-1.0280858 89:0.24817054 90:1.4002461 #
-0.95451030572829854 11:0.47058824 12:0.35094279 #
-0.95451030572829854 3:0.56716418 4:-0.30108604 67:0.019545922 68:-0.11139017 69:0.0030582056 70:0.0097939018 71:0.0072466177 72:-0.020392464 #
-0.95451030572829854 3:0.027561247 4:-0.014631225 11:0.097438753 12:0.072665289 67:0.13780624 68:-0.78534329 89:0.48719376 90:2.7488806 #
0.95451030572829854 3:0.082850777 4:-0.043982349 7:0.0017817372 8:0.00022468594 9:0.0035634744 10:-0.00057293783 11:0.26458797 12:0.19731739 13:0.0017817372 14:-0.00094465411 15:0.0026726057 16:-0.0024511204 17:0.0035634744 18:0.0042447355 19:0.0026726057 20:-0.00040752144 21:0.0017817372 22:-0.0012130745 23:0.0017817372 24:0.00057811599 25:0.0035634744 26:0.0046695611 27:0.0035634744 28:-0.0035631417 31:0.0044543431 32:0.0024164715 33:0.0035634744 34:-0.003129435 37:0.0008908686 38:0.00076107169 39:0.0008908686 40:-4.1201376e-005 41:0.0026726057 42:-0.0017242896 43:0.0044543431 44:-0.0030913115 49:0.0008908686 50:9.2479546e-005 51:0.0008908686 52:0.00021435598 55:0.0017817372 56:-0.0012137712 59:0.0026726057 60:0.0011956444 63:0.0026726057 64:-0.0007801273 #
0.95451030572829854 3:0.087750554 4:-0.046583455 11:0.11046771 12:0.082381673 31:0.0004454343 32:0.00024164715 33:0.0004454343 34:-0.00039117938 39:0.0004454343 40:-2.0600688e-005 51:0.0004454343 52:0.00010717799 67:0.17461024 68:-0.99508548 69:0.0008908686 70:0.0028530061 89:0.22004454 90:1.2415516 93:0.0008908686 94:-0.0043249307 149:0.0008908686 150:0.0051694983 151:0.0008908686 152:0.00040349617 167:0.0008908686 168:-0.00024118216 191:0.0008908686 192:-0.00091134635 #
-0.95451030572829854 63:0.50467288 64:-0.14731283 209:0.031846471 210:-0.13740771 211:0.014882501 212:0.07814575 #
-0.95451030572829854 3:0.046770602 4:-0.024828745 11:0.11989606 12:0.089412905 67:0.18708241 68:-1.0661631 89:0.47958425 90:2.7059457 #
0.95451030572829854 3:0.0077951001 4:-0.0041381242 13:0.2271715 14:-0.1204434 29:0.0011135858 30:-0.001042426 47:0.0033407572 48:-0.0011818625 55:0.0011135858 56:-0.00075860694 63:0.25946549 64:-0.075737365 67:0.0008908686 68:-0.0050769667 69:0.00066815142 70:0.0021397546 95:0.0024498887 96:-0.0028393304 97:0.032739419 98:-0.0020088106 99:0.010022271 100:0.022469047 101:0.00022271715 102:-2.3526032e-005 137:0.00022271715 138:0.00012888609 181:0.00066815142 182:7.7554498e-005 197:0.00022271715 198:6.0518942e-005 209:0.014699331 210:-0.063423082 211:0.037193764 212:0.19529879 #
0.95451030572829854 3:0.28169015 4:-0.14953865 67:0.15492958 68:-0.88292742 #
-0.95451030572829854 11:0.42857143 12:0.31960863 #
-0.95451030572829854 47:0.30555555 48:-0.10809665 179:0.00012373175 180:-1.2829583e-005 181:0.027654046 182:0.0032098945 #
0.95451030572829854 11:0.14507772 12:0.10819221 93:0.19689119 94:-0.95585448 #
-0.95451030572829854 3:0.21428572 4:-0.11375619 71:0.0625 72:-0.17587917 #
-0.95451030572829854 3:0.034743875 4:-0.01844421 11:0.36525613 12:0.27239102 67:0.034743875 68:-0.1980017 89:0.3634744 90:2.050822 93:0.0017817372 94:-0.0086498614 #
-0.95451030572829854 3:0.024498885 4:-0.013005533 11:0.11835825 12:0.088266075 67:0.097995542 68:-0.55846632 89:0.47088769 90:2.6568773 91:0.0012726694 92:0.00039812209 93:0.0012726694 94:-0.0061784722 #
-0.95451030572829854 11:0.38860103 12:0.28980055 93:0.062176164 94:-0.30184877 #
0.95451030572829854 3:0.0093136262 4:-0.0049442523 11:0.17250456 12:0.12864587 67:0.018627252 68:-0.10615476 89:0.34419924 90:1.9420664 93:0.00080988056 94:-0.0039317552 #
0.95451030572829854 3:0.16321985 4:-0.086647257 11:0.26535156 12:0.19788685 67:0.16321985 68:-0.93017286 89:0.26535156 90:1.4971863 #
-0.95451030572829854 3:0.085746102 4:-0.045519367 11:0.41425389 12:0.30893126 67:0.057164069 68:-0.32577205 89:0.27616927 90:1.5582227 #
-0.95451030572829854 3:0.0033407572 4:-0.0017734818 11:0.49665925 12:0.37038535 67:0.00066815142 68:-0.0038077252 89:0.098663695 90:0.55668759 93:0.00066815142 94:-0.0032436978 #
0.95451030572829854 3:0.075757578 4:-0.040216833 67:0.098265506 68:-0.56000483 69:0.00023621516 70:0.00075647887 71:0.007558885 72:-0.021271206 #
0.95451030572829854 11:0.1724138 12:0.12857819 89:0.10321788 90:0.58238357 91:0.00023039705 92:7.2073824e-005 #
0.95451030572829854 3:0.11636971 4:-0.061776284 11:0.13363029 12:0.099655248 67:0.17455457 68:-0.9947682 89:0.20044543 90:1.1309681 #
0.95451030572829854 3:0.18095769 4:-0.096063599 11:0.069042318 12:0.051488545 67:0.18095769 68:-1.0312588 89:0.069042318 90:0.38955566 #
0.95451030572829854 3:0.44186047 4:-0.23456703 67:0.0012948671 68:-0.0073793121 71:0.1149842 72:-0.3235732 #
-0.95451030572829854 3:0.0022271716 4:-0.0011823212 11:0.14062998 12:0.10487529 67:0.0066815144 68:-0.03807725 89:0.40470886 90:2.2834785 91:0.00095450209 92:0.00029859156 93:0.016226536 94:-0.078775518 #
0.95451030572829854 41:0.51123595 42:-0.32983497 169:0.026217228 170:-0.0097402977 #
-0.95451030572829854 3:0.58823532 4:-0.31227189 71:0.05882353 72:-0.16553333 #
0.95451030572829854 63:0.29090908 64:-0.084915675 209:0.024863333 210:-0.10727762 211:0.011500304 212:0.060386345 #
-0.95451030572829854 3:0.00093775644 4:-0.00049781945 11:0.42011487 12:0.31330213 #
0.95451030572829854 3:0.21508113 4:-0.11417845 11:0.35634744 12:0.26574734 67:0.16131085 68:-0.91929364 89:0.26726058 90:1.5079575 #
0.95451030572829854 41:0.44999999 42:-0.29032728 #
-0.95451030572829854 3:0.54411763 4:-0.2888515 67:0.0024564392 68:-0.013998989 69:0.039696056 70:0.12712659 71:0.0019651514 72:-0.0055300668 #
0.95451030572829854 3:0.15055679 4:-0.079924911 11:0.2494432 12:0.18602313 67:0.15055679 68:-0.85800737 89:0.24855234 90:1.4024004 93:0.0008908686 94:-0.0043249307 #
0.95451030572829854 3:0.38679245 4:-0.2053335 69:0.060784973 70:0.19466384 71:0.042988613 72:-0.12097282 #
0.95451030572829854 3:0.10769231 4:-0.057169776 67:0.12307692 68:-0.70140249 #
0.95451030572829854 3:0.12115813 4:-0.064318277 11:0.27884188 12:0.20794728 67:0.12115813 68:-0.69046748 89:0.27884188 90:1.5733023 #
-0.95451030572829854 3:0.032293987 4:-0.017143657 11:0.46102449 12:0.34381062 15:0.0022271716 16:-0.0020426004 27:0.0011135858 28:-0.0011134818 29:0.0011135858 30:-0.001042426 59:0.0022271716 60:0.00099637033 67:0.0077951001 68:-0.044423461 69:0.00027839644 70:0.00089156441 89:0.1021715 90:0.57647955 91:0.0016703786 92:0.00052253524 93:0.011414254 94:-0.055413172 103:0.00055679289 104:0.00058452535 135:0.00027839644 136:-0.00014829167 137:0.00027839644 138:0.00016110761 203:0.00055679289 204:-0.00024945146 #
0.95451030572829854 3:0.074769326 4:-0.039692212 11:0.067451477 12:0.050302174 15:0.00063633471 16:-0.00058360014 67:0.14953865 68:-0.85220516 89:0.13299395 90:0.75038832 93:0.0019090042 94:-0.0092677083 103:0.00063633471 104:0.00066802895 105:0.00063633471 106:-0.00020616256 #
0.95451030572829854 11:0.23783784 12:0.17736839 93:0.23243243 94:-1.1283977 #
-0.95451030572829854 57:0.47659576 58:-0.23050854 199:0.037956689 200:-0.10795115 201:0.00034118371 202:0.001144028 #
-0.95451030572829854 3:0.0035634744 4:-0.0018917139 11:0.19643652 12:0.14649321 67:0.0071269488 68:-0.040615734 89:0.39287305 90:2.2166975 #
0.95451030572829854 3:0.22317597 4:-0.11847569 71:0.060085837 72:-0.16908555 #
0.95451030572829854 11:0.19531776 12:0.1456589 21:0.013984566 22:-0.0095212245 89:0.065105923 90:0.36734545 119:0.0046615219 120:-0.0011439169 #
0.95451030572829854 3:0.32394367 4:-0.17196946 67:0.14084508 68:-0.8026613 #
-0.95451030572829854 11:0.40909091 12:0.30508095 89:0.13636364 90:0.76940101 #
0.95451030572829854 3:0.094531059 4:-0.050182968 11:0.12769116 12:0.095226124 67:0.14179659 68:-0.80808389 89:0.19153675 90:1.0807028 #
-0.95451030572829854 67:0.10423163 68:-0.59400511 89:0.49443206 90:2.7897213 93:0.0013363028 94:-0.0064873956 #
-0.95451030572829854 3:0.043907095 4:-0.023308618 7:0.00095450209 8:0.00012036747 9:0.00095450209 10:-0.00015346549 11:0.3722558 12:0.27761105 15:0.0019090042 16:-0.0017508004 19:0.00095450209 20:-0.00014554337 25:0.0028635061 26:0.0037523259 31:0.0019090042 32:0.0010356306 33:0.00095450209 34:-0.00083824154 57:0.00095450209 58:-0.00046165095 63:0.00095450209 64:-0.00027861691 67:0.014317531 68:-0.08159411 71:0.00031816735 72:-0.00089534413 77:0.00031816735 78:-0.00034596794 87:0.00031816735 88:0.00060961256 89:0.10499523 90:0.59241188 91:0.0041361758 92:0.0012938968 93:0.014953866 94:-0.072597049 103:0.00031816735 104:0.00033401448 105:0.00031816735 106:-0.00010308128 115:0.00031816735 116:0.00027954916 127:0.00095450209 128:-0.0046679555 145:0.00063633471 146:-0.0042077089 151:0.00031816735 152:0.00014410577 201:0.00031816735 202:0.0010668515 211:0.00031816735 212:0.0016706483 #
0.95451030572829854 35:0.51639342 36:0.021482442 155:0.29508197 156:0.21504368 #
0.95451030572829854 3:0.00043106545 4:-0.00022883636 11:0.19268626 12:0.14369644 15:0.00043106545 16:-0.00039534201 67:0.00021553272 68:-0.0012282984 89:0.08513543 90:0.48035741 91:0.00021553272 92:6.7423898e-005 93:0.010992169 94:-0.053364061 103:0.00021553272 104:0.00022626788 #
0.95451030572829854 3:0.29809833 4:-0.15824914 11:0.0095939692 12:0.0071547357 67:0.14904916 68:-0.8494156 89:0.0047969846 90:0.027065903 #
-0.95451030572829854 3:0.080549367 4:-0.042760618 11:0.086117297 12:0.064222269 67:0.10068671 68:-0.57380301 89:0.10764662 90:0.60737175 #
0.95451030572829854 11:0.083333336 12:0.06214612 93:0.15000001 94:-0.72821015 #
-0.95451030572829854 11:0.33333334 12:0.24858448 89:0.17881006 90:1.0088953 91:0.0012726694 92:0.00039812209 93:0.10563156 94:-0.51281321 #
0.95451030572829854 3:0.14877506 4:-0.07897906 11:0.25122494 12:0.18735187 67:0.14877506 68:-0.84785342 89:0.25122494 90:1.41748 #
0.95451030572829854 3:0.38235295 4:-0.20297673 67:0.00039303026 68:-0.0022398382 69:0.087842263 70:0.28131479 #
-0.95451030572829854 57:0.19879518 58:-0.096148543 199:0.045180723 200:-0.12849675 #
0.95451030572829854 55:0.5 56:-0.34061453 197:0.06666667 198:0.018115336 #
0.95451030572829854 55:0.47999999 56:-0.32698995 #
0.95451030572829854 3:0.088195994 4:-0.046819922 11:0.11180401 12:0.083378226 67:0.13229398 68:-0.75392956 89:0.16770601 90:0.94624329 #
0.95451030572829854 3:0.22383073 4:-0.11882328 11:0.026169265 12:0.01951582 67:0.1598791 68:-0.91113418 89:0.018692331 90:0.10546726 #
0.95451030572829854 15:0.55555558 16:-0.50951535 #
0.95451030572829854 3:0.17668894 4:-0.093797483 11:0.15664439 12:0.1168181 67:0.17668894 68:-1.0069318 89:0.15441722 90:0.87126428 93:0.0022271716 94:-0.010812326 #
0.95451030572829854 3:0.080929846 4:-0.042962596 11:0.031570155 12:0.023543553 67:0.14387527 68:-0.81993014 89:0.056124721 90:0.31667107 #
0.95451030572829854 19:0.55510205 20:-0.084642477 115:0.023180764 116:0.020367153 117:0.0013090314 118:-0.00030962352 #
0.95451030572829854 3:0.12444321 4:-0.066062197 11:0.24888642 12:0.1856079 55:0.0016703786 56:-0.0011379104 67:0.12444321 68:-0.70918882 89:0.24888642 90:1.4042853 197:0.0016703786 198:0.00045389205 #
-0.95451030572829854 11:0.45454547 12:0.33897883 89:0.0010123507 90:0.0057119601 93:0.22626038 94:-1.0984341 #
0.95451030572829854 67:0.001484781 68:-0.0084616113 89:0.66518188 90:3.7531385 #
0.95451030572829854 11:0.1875 12:0.13982877 89:0.041573867 90:0.23457116 93:9.2798815e-005 94:-0.00045051359 #
-0.95451030572829854 3:0.16815145 4:-0.08926525 7:0.0011135858 8:0.00014042872 9:0.0011135858 10:-0.00017904308 11:0.29955456 12:0.22339386 17:0.0011135858 18:0.0013264798 19:0.0055679288 20:-0.00084900297 21:0.0011135858 22:-0.00075817161 23:0.0022271716 24:0.00072264497 29:0.0022271716 30:-0.002084852 31:0.0011135858 32:0.00060411787 33:0.0022271716 34:-0.0019558968 35:0.0022271716 36:9.2652379e-005 39:0.0011135858 40:-5.150172e-005 43:0.0011135858 44:-0.00077282789 57:0.0011135858 58:-0.00053859281 59:0.0011135858 60:0.00049818517 63:0.0077951001 64:-0.0022753715 #
-0.95451030572829854 3:0.14039409 4:-0.074529916 69:0.36945814 70:1.1831894 #
-0.95451030572829854 3:0.15236427 4:-0.080884434 69:0.35551664 70:1.1385418 #
0.95451030572829854 67:0.155902 68:-0.88846916 89:0.2414254 90:1.3621882 93:0.0026726057 94:-0.012974791 #
0.95451030572829854 11:0.25 12:0.18643837 93:0.22794117 94:-1.1065938 #
-0.95451030572829854 3:0.056514475 4:-0.0300014 9:0.00027839644 10:-4.4760771e-005 11:0.067650333 12:0.05045047 51:0.00027839644 52:6.6986242e-005 57:0.00027839644 58:-0.0001346482 67:0.035820343 68:-0.20413637 69:0.0016703786 70:0.0053493865 71:0.00018559763 72:-0.00052228407 85:0.00018559763 86:-3.1680389e-005 89:0.043429844 90:0.24504308 91:0.00018559763 92:5.8059471e-005 93:0.001484781 94:-0.0072082174 191:0.00018559763 192:-0.00018986383 199:0.00018559763 200:-0.00052785099 #
-0.95451030572829854 11:0.18120806 12:0.13513653 89:0.00016442206 90:0.00092771428 91:0.00016442206 92:5.1435236e-005 93:0.073496662 94:-0.35680676 #
0.95451030572829854 3:0.07692308 4:-0.040835556 67:0.1025641 68:-0.58450204 #
-0.95451030572829854 3:0.049634106 4:-0.026348872 11:0.37798283 12:0.28188199 31:0.00095450209 32:0.00051781529 #
-0.95451030572829854 3:0.04454343 4:-0.023646424 11:0.35545656 12:0.26508296 67:0.04454343 68:-0.25384834 89:0.35367483 90:1.9955304 91:0.0008908686 92:0.00027868545 93:0.0008908686 94:-0.0043249307 #
-0.95451030572829854 11:0.44 12:0.32813153 93:0.28 94:-1.3593256 #
0.95451030572829854 17:0.22826087 18:0.27189952 113:0.17391305 114:0.14947499 #
-0.95451030572829854 11:0.14 12:0.10440549 89:0.34 90:1.9183732 #
0.95451030572829854 3:0.01410542 4:-0.0074880342 11:0.15256125 12:0.11377308 #
-0.95451030572829854 3:0.5 4:-0.26543111 67:0.012148208 68:-0.069231369 69:0.0024802592 70:0.0079430286 71:0.0080988053 72:-0.022790577 #
-0.95451030572829854 3:0.0076559018 4:-0.0040642293 11:0.30484411 12:0.22733854 67:0.0076559018 68:-0.043630183 89:0.30484411 90:1.720014 #
-0.95451030572829854 11:0.10526316 12:0.07850036 89:0.2631579 90:1.4848089 #
0.95451030572829854 3:0.1875 4:-0.099536665 67:0.11998887 68:-0.68380398 69:0.0047327396 70:0.015156595 71:0.00027839644 72:-0.00078342611 #
-0.95451030572829854 11:0.16666667 12:0.12429224 89:0.33184856 90:1.8723805 91:0.001484781 92:0.00046447577 #
0.95451030572829854 3:0.39375001 4:-0.20902701 69:0.081249997 70:0.26020306 #
-0.95451030572829854 3:0.39821827 4:-0.21139903 19:0.0017817372 20:-0.00027168094 #
0.95451030572829854 3:0.010764662 4:-0.0057145525 11:0.155902 12:0.11626446 67:0.043058649 68:-0.24538672 89:0.62360799 90:3.5185673 #
-0.95451030572829854 3:0.067557536 4:-0.035863742 11:0.2657758 12:0.19820322 67:0.090076715 68:-0.51333773 89:0.35436773 90:1.9994398 #
-0.95451030572829854 3:0.52941179 4:-0.28104469 67:0.00050948368 68:-0.0029034941 69:0.00014556677 70:0.00046617747 71:0.032024689 72:-0.090119608 #
-0.95451030572829854 3:0.0099210367 4:-0.0052667037 7:0.01457785 8:0.0018383395 9:0.00040494028 10:-6.5106571e-005 11:0.010933387 12:0.0081536118 13:0.013767969 14:-0.0072995997 15:0.025106296 16:-0.023025678 19:0.00020247014 20:-3.0872834e-005 21:0.00080988056 22:-0.0005513975 23:0.00040494028 24:0.00013139 27:0.00020247014 28:-0.00020245124 31:0.00080988056 32:0.00043935844 39:0.00040494028 40:-1.8727898e-005 41:0.00020247014 42:-0.000130628 43:0.00040494028 44:-0.00028102833 51:0.012755618 52:0.003069188 67:0.018627252 68:-0.10615476 69:0.0012148208 70:0.0038904629 77:0.028750759 78:-0.031262923 79:0.00040494028 80:2.8488168e-005 85:0.00040494028 86:-6.9120848e-005 87:0.00040494028 88:0.00077587058 89:0.018627252 90:0.10510007 93:0.0032395222 94:-0.015727021 95:0.0020247013 96:-0.0023465541 97:0.017817372 98:-0.0010932303 99:0.0076938653 100:0.017248966 103:0.04454343 104:0.046762027 105:0.0032395222 106:-0.0010495549 107:0.00080988056 108:-0.0005974457 109:0.00080988056 110:-5.6479505e-005 111:0.00080988056 112:3.8307502e-005 115:0.00040494028 116:0.00035578982 119:0.0016197611 120:-0.00039748222 121:0.00080988056 122:-0.0005077573 133:0.00040494028 134:0.0005765431 145:0.00080988056 146:-0.0053552659 149:0.00080988056 150:0.004699544 167:0.00080988056 168:-0.00021925652 169:0.00040494028 170:-0.00015044454 171:0.00080988056 172:0.00047395439 187:0.0020247013 188:-0.0015994693 191:0.023486536 192:-0.024026405 #
-0.95451030572829854 3:0.0011135858 4:-0.00059116061 11:0.16555308 12:0.12346178 67:0.0022271716 68:-0.012692417 89:0.33110616 90:1.8681917 #
-0.95451030572829854 3:0.51020408 4:-0.27084807 67:0.036452889 68:-0.20774119 69:0.00090904959 70:0.0029112308 71:0.0034543884 72:-0.0097208787 #
0.95451030572829854 11:0.14634146 12:0.10913465 89:0.072029985 90:0.40641293 91:0.00016296377 92:5.0979048e-005 93:0.00097778265 94:-0.0047468748 #
-0.95451030572829854 41:0.26691729 42:-0.17220749 169:0.078947365 170:-0.029330747 #
0.95451030572829854 67:0.001484781 68:-0.0084616113 89:0.66518188 90:3.7531385 #
0.95451030572829854 3:0.047406934 4:-0.025166551 11:0.095450208 12:0.071182318 67:0.14222081 68:-0.81050146 89:0.28635061 90:1.6156687 #
0.95451030572829854 3:0.255 4:-0.13536987 71:0.064999998 72:-0.18291433 #
-0.95451030572829854 11:0.15789473 12:0.11775055 89:0.31367952 90:1.7698659 93:0.002109952 94:-0.010243257 #
-0.95451030572829854 13:0.6336 14:-0.33592656 99:0.038400002 100:0.086089402 #
-0.95451030572829854 3:0.11284336 4:-0.059904274 11:0.22048998 12:0.16443115 67:0.16926503 68:-0.96462369 89:0.32962137 90:1.8598142 93:0.0011135858 94:-0.0054061632 #
0.95451030572829854 67:0.064587973 68:-0.36808008 69:0.010393467 70:0.03328507 71:0.0155902 72:-0.043871861 85:0.001484781 86:-0.00025344311 87:0.001484781 88:0.0028448587 89:0.19599108 90:1.1058354 91:0.0029695621 92:0.00092895154 93:0.01484781 94:-0.072082177 97:0.00074239052 98:-4.5551264e-005 103:0.001484781 104:0.0015587342 115:0.001484781 116:0.0013045627 119:0.0022271716 120:-0.00054653804 127:0.00074239052 128:-0.0036306321 131:0.00074239052 132:0.0022411104 135:0.001484781 136:-0.00079088897 137:0.0022271716 138:0.0012888609 139:0.001484781 140:-0.00010308147 145:0.00074239052 146:-0.0049089938 149:0.001484781 150:0.0086158309 155:0.00074239052 156:0.00054102385 161:0.00074239052 162:3.5262587e-005 167:0.001484781 168:-0.00040197029 169:0.00074239052 170:-0.00027581499 181:0.00074239052 182:8.6171662e-005 185:0.00074239052 186:6.1922248e-005 187:0.00074239052 188:-0.0005864721 197:0.00074239052 198:0.0002017298 199:0.00074239052 200:-0.002111404 203:0.001484781 204:-0.0006652039 209:0.0022271716 210:-0.0096095586 #
0.95451030572829854 3:0.5714286 4:-0.30334985 69:0.078571431 70:0.25162494 #
-0.95451030572829854 3:0.021380845 4:-0.011350283 11:0.0029695621 12:0.0022145612 13:0.24112843 14:-0.12784319 35:0.00059391238 36:2.4707302e-005 39:0.00059391238 40:-2.7467584e-005 67:0.010393467 68:-0.059231278 69:0.00029695619 70:0.00095100206 89:0.001484781 90:0.0083775409 95:0.00029695619 96:-0.00034416126 97:0.11967335 98:-0.0073428634 99:0.00059391238 100:0.0013314991 155:0.00029695619 156:0.00021640953 167:0.00029695619 168:-8.0394057e-005 #
0.95451030572829854 3:0.086956523 4:-0.046161931 67:0.10144927 68:-0.57814878 #
-0.95451030572829854 89:0.30000001 90:1.6926823 #
0.95451030572829854 3:0.10244989 4:-0.054386776 7:0.0035634744 8:0.00044937187 9:0.0008908686 10:-0.00014323446 11:0.19242762 12:0.14350356 13:0.0097995549 14:-0.0051955977 15:0.0089086862 16:-0.0081704017 17:0.0017817372 18:0.0021223677 19:0.0062360801 20:-0.00095088332 21:0.0035634744 22:-0.0024261491 23:0.0044543431 24:0.0014452899 25:0.011581291 26:0.015176074 27:0.0035634744 28:-0.0035631417 29:0.0035634744 30:-0.0033357632 31:0.0044543431 32:0.0024164715 33:0.0035634744 34:-0.003129435 35:0.0026726057 36:0.00011118286 37:0.0008908686 38:0.00076107169 39:0.0044543431 40:-0.00020600688 41:0.0035634744 42:-0.0022990529 43:0.0035634744 44:-0.0024730493 47:0.0008908686 48:-0.00031516334 49:0.0026726057 50:0.00027743864 51:0.0071269488 52:0.0017148479 55:0.0017817372 56:-0.0012137712 57:0.0053452114 58:-0.0025852453 59:0.0017817372 60:0.00079709623 63:0.0044543431 64:-0.0013002122 #
-0.95451030572829854 11:0.46698114 12:0.3482528 93:0.070754714 94:-0.34349537 #
-0.95451030572829854 3:0.074832961 4:-0.039725993 11:0.32516703 12:0.24249443 67:0.074832961 68:-0.42646521 89:0.32516703 90:1.8346815 #
0.95451030572829854 11:0.18181819 12:0.13559154 89:0.18181819 90:1.0258681 #
-0.95451030572829854 25:0.60130721 26:0.78795028 127:0.09150327 128:-0.4474932 #
-0.95451030572829854 21:0.34615386 22:-0.23567472 119:0.03846154 120:-0.0094382912 #
-0.95451030572829854 3:0.033407573 4:-0.017734818 11:0.16659243 12:0.12423687 67:0.066815145 68:-0.3807725 89:0.33318487 90:1.8799202 #
-0.95451030572829854 55:0.40425533 56:-0.27539048 197:0.090425529 198:0.024571333 #
0.95451030572829854 11:0.11111111 12:0.082861498 89:0.1388889 90:0.78364921 #
0.95451030572829854 3:0.17647059 4:-0.093681566 67:0.11764706 68:-0.67045826 #
-0.95451030572829854 3:0.063474387 4:-0.033696156 11:0.18485524 12:0.13785642 15:0.0011135858 16:-0.0010213002 41:0.00055679289 42:-0.00035922701 #
0.95451030572829854 11:0.24444444 12:0.18229529 89:0.066072755 90:0.37280059 91:0.00059391238 92:0.00018579031 #
0.95451030572829854 11:0.12874587 12:0.096012682 17:0.098840334 18:0.11773653 93:0.066323631 94:-0.32198364 113:0.050917748 114:0.043762848 #
-0.95451030572829854 3:0.52747256 4:-0.28001523 71:0.032967035 72:-0.092771426 #
-0.95451030572829854 3:0.040979955 4:-0.02175471 11:0.35902005 12:0.26774043 67:0.035857461 68:-0.20434791 89:0.31414253 90:1.7724783 #
0.95451030572829854 3:0.14996289 4:-0.079609625 11:0.016703786 12:0.012456906 67:0.11247216 68:-0.64096707 89:0.012527839 90:0.070685506 #
-0.95451030572829854 11:0.007954184 12:0.0059318603 25:0.22112632 26:0.28976294 29:0.007954184 30:-0.0074459002 33:0.00053027895 34:-0.00046568975 51:0.00053027895 52:0.00012759285 89:0.0044543431 90:0.025132624 93:0.00031816735 94:-0.001544618 127:0.13172129 128:-0.64417785 131:0.00095450209 132:0.0028814275 137:0.0047725104 138:0.0027618448 151:0.00031816735 152:0.00014410577 191:0.00031816735 192:-0.00032548085 #
-0.95451030572829854 3:0.036080178 4:-0.019153604 11:0.16391982 12:0.12224377 67:0.072160356 68:-0.41123432 89:0.32783964 90:1.8497611 #
0.95451030572829854 25:0.2264151 26:0.29669333 127:0.2264151 128:-1.1072743 #
-0.95451030572829854 27:0.14583333 28:-0.14581972 133:0.15625 134:0.22246456 #
-0.95451030572829854 3:0.010393467 4:-0.0055174991 11:0.1562732 12:0.11654128 67:0.020786934 68:-0.11846256 89:0.3125464 90:1.7634724 #
0.95451030572829854 25:0.24137931 26:0.31630239 127:0.22413793 128:-1.0961379 #
-0.95451030572829854 67:0.0033407572 68:-0.019038625 89:0.29665923 90:1.6738328 #
-0.95451030572829854 25:0.56461233 26:0.73986548 131:0.033797216 132:0.10202622 #
0.95451030572829854 25:0.13013698 26:0.17053093 127:0.1849315 128:-0.90440041 #
0.95451030572829854 17:0.2631579 18:0.31346813 113:0.13157895 114:0.11308963 #
-0.95451030572829854 3:0.4893617 4:-0.25978366 67:0.02352746 68:-0.13408053 69:0.0068947542 70:0.022080446 71:0.0014926788 72:-0.0042004976 #
0.95451030572829854 25:0.62576687 26:0.82000214 127:0.092024542 128:-0.45004246 #
0.95451030572829854 3:0.2663697 4:-0.14140561 11:0.13095768 12:0.097662143 27:0.0008908686 28:-0.00089078542 35:0.0008908686 36:3.7060952e-005 55:0.0008908686 56:-0.00060688559 67:0.13273942 68:-0.75646806 71:0.0004454343 72:-0.0012534817 89:0.065478839 90:0.36944959 135:0.0004454343 136:-0.00023726668 155:0.0004454343 156:0.00032461432 197:0.0004454343 198:0.00012103788 #
-0.95451030572829854 25:0.47727272 26:0.6254161 127:0.04292367 128:-0.20991655 131:0.0025308768 132:0.007640149 #
0.95451030572829854 25:0.26415095 26:0.34614223 127:0.20754717 128:-1.0150014 #
0.95451030572829854 3:0.040725421 4:-0.021619588 11:0.24498886 12:0.18270129 67:0.040725421 68:-0.23208991 89:0.24244353 90:1.3679328 93:0.0025453388 94:-0.012356944 #
0.95451030572829854 25:0.28440368 26:0.37268132 127:0.21100917 128:-1.0319322 #
-0.95451030572829854 11:0.24137931 12:0.18000945 89:0.27586207 90:1.5564893 #
-0.95451030572829854 3:0.023756497 4:-0.012611426 11:0.30957684 12:0.230868 67:0.023756497 68:-0.13538578 89:0.30957684 90:1.7467173 #
-0.95451030572829854 25:0.5 26:0.6551978 127:0.1640683 128:-0.80236971 131:0.0025983667 132:0.0078438865 #
0.95451030572829854 3:0.54411763 4:-0.2888515 67:0.013952575 68:-0.079514258 69:0.069959387 70:0.22404489 71:0.004323333 72:-0.012166147 #
0.95451030572829854 3:0.26503339 4:-0.14069623 11:0.23496659 12:0.17522715 67:0.13195992 68:-0.75202572 71:0.00055679289 72:-0.0015668522 89:0.11692651 90:0.65973139 93:0.00055679289 94:-0.0027030816 #
0.95451030572829854 3:0.1325167 4:-0.070348114 11:0.01965721 12:0.014659432 67:0.094654791 68:-0.5394277 89:0.014040864 90:0.079222403 #
-0.95451030572829854 3:0.41666666 4:-0.2211926 67:0.0081044296 68:-0.046186294 69:0.00026808545 70:0.0008585435 71:0.00088674418 72:-0.0024953573 #
-0.95451030572829854 11:0.12 12:0.089490414 89:0.28 90:1.5798367 #
-0.95451030572829854 25:0.54347825 26:0.71217149 127:0.086956523 128:-0.4252575 #
0.95451030572829854 3:0.15055679 4:-0.079924911 11:0.2494432 12:0.18602313 67:0.075278394 68:-0.42900369 89:0.1247216 90:0.70371348 #
-0.95451030572829854 3:0.026726058 4:-0.014187855 11:0.30660728 12:0.22865343 67:0.026726058 68:-0.152309 89:0.30586487 90:1.7257735 93:0.00074239052 94:-0.0036041087 #
0.95451030572829854 11:0.15384616 12:0.1147313 93:0.03846154 94:-0.18672056 #
0.95451030572829854 57:0.26530612 58:-0.12831698 201:0.091836736 202:0.30793908 #
0.95451030572829854 25:0.37931034 26:0.49704659 127:0.1724138 128:-0.84318298 #
0.95451030572829854 41:0.51525426 42:-0.33242747 169:0.033898305 170:-0.012593993 #
0.95451030572829854 3:0.45821327 4:-0.24324811 71:0.06051873 72:-0.17030375 #
0.95451030572829854 25:0.1632653 26:0.21394214 127:0.1632653 128:-0.79844266 #
0.95451030572829854 3:0.13437268 4:-0.071333379 11:0.19896065 12:0.1483756 67:0.13437268 68:-0.7657758 89:0.19896065 90:1.1225905 #
0.95451030572829854 3:0.13511507 4:-0.071727484 11:0.19821826 12:0.14782195 67:0.13511507 68:-0.7700066 89:0.19821826 90:1.1184018 #
-0.95451030572829854 3:0.040979955 4:-0.02175471 11:0.15902005 12:0.11858974 67:0.081959911 68:-0.46708095 89:0.30111358 90:1.6989654 91:0.0017817372 92:0.00055737089 93:0.015144766 94:-0.073523819 #
-0.95451030572829854 67:0.049740162 68:-0.28346398 77:0.00074239052 78:-0.00080725853 89:0.27468449 90:1.5498451 93:0.0044543431 94:-0.021624653 103:0.00074239052 104:0.00077936711 131:0.00074239052 132:0.0022411104 155:0.00074239052 156:0.00054102385 197:0.001484781 198:0.00040345959 #
0.95451030572829854 3:0.37908497 4:-0.20124188 69:0.078431375 70:0.25117642 #
-0.95451030572829854 11:0.073170729 12:0.054567326 89:0.24335922 90:1.3730994 93:0.00054321258 94:-0.0026371528 #
-0.95451030572829854 67:0.026089722 68:-0.14868259 89:0.25898823 90:1.4612826 93:0.00063633471 94:-0.0030892361 #
0.95451030572829854 3:0.1077951 4:-0.057224348 11:0.092204899 12:0.068762124 67:0.1077951 68:-0.61431301 89:0.092204899 90:0.52024531 #
0.95451030572829854 3:0.18972331 4:-0.10071694 69:0.24505928 70:0.7848022 #
0.95451030572829854 3:0.17193764 4:-0.0912752 11:0.22806236 12:0.17007829 67:0.085968822 68:-0.48992729 89:0.11403118 90:0.64339519 #
-0.95451030572829854 11:0.1 12:0.074575342 89:0.25 90:1.4105685 #
0.95451030572829854 3:0.11692651 4:-0.062071864 11:0.21953547 12:0.16371934 35:0.020680878 36:0.00086034351 67:0.070155904 68:-0.39981112 89:0.13172129 90:0.74320757 155:0.012408527 156:0.0090428274 #
0.95451030572829854 11:0.31578946 12:0.2355011 89:0.10373931 90:0.5853256 91:0.0014066346 92:0.00044002966 93:0.052748799 94:-0.2560814 #
-0.95451030572829854 3:0.0045935414 4:-0.0024385375 11:0.18290646 12:0.13640313 67:0.0061247214 68:-0.034904145 89:0.24387528 90:1.3760111 #
0.95451030572829854 11:0.16666667 12:0.12429224 89:0.33333334 90:1.880758 #
-0.95451030572829854 3:0.0038180084 4:-0.0020268364 11:0.28189626 12:0.21022512 67:0.0038180084 68:-0.02175843 89:0.28062361 90:1.5833553 91:0.00063633471 92:0.00019906105 93:0.00063633471 94:-0.0030892361 #
0.95451030572829854 3:0.0022271716 4:-0.0011823212 7:0.0029695621 8:0.00037447657 9:0.0081662955 10:-0.0013129825 11:0.23979212 12:0.17882581 13:0.0044543431 14:-0.0023616352 15:0.0081662955 16:-0.007489535 17:0.00074239052 18:0.00088431989 19:0.0022271716 20:-0.00033960119 21:0.0029695621 22:-0.0020217909 23:0.001484781 24:0.0004817633 25:0.0022271716 26:0.0029184758 27:0.0022271716 28:-0.0022269636 29:0.00074239052 30:-0.00069495069 31:0.0022271716 32:0.0012082357 33:0.00074239052 34:-0.00065196562 37:0.00074239052 38:0.00063422642 41:0.0022271716 42:-0.001436908 43:0.00074239052 44:-0.00051521859 45:0.00074239052 46:0.00059437827 47:0.00074239052 48:-0.00026263614 49:0.001484781 50:0.00015413258 51:0.0037119526 52:0.00089314993 55:0.039346695 56:-0.026804112 57:0.00074239052 58:-0.00035906184 59:0.00074239052 60:0.00033212345 63:0.00074239052 64:-0.00021670203 67:0.00098985399 68:-0.0056410744 69:0.00049492699 70:0.0015850035 77:0.001979708 78:-0.0021526895 85:0.0029695621 86:-0.00050688622 87:0.0024746349 88:0.0047414312 89:0.14847811 90:0.83775413 91:0.003464489 92:0.0010837768 93:0.0079188319 94:-0.038443826 95:0.00049492699 96:-0.0005736021 97:0.001484781 98:-9.1102527e-005 99:0.00098985399 100:0.0022191652 103:0.0049492698 104:0.0051957807 105:0.00049492699 106:-0.00016034866 113:0.00049492699 114:0.00042538045 115:0.00049492699 116:0.00043485424 117:0.00098985399 118:-0.00023412889 119:0.001979708 120:-0.00048581159 121:0.00098985399 122:-0.00062059221 127:0.00098985399 128:-0.0048408429 131:0.00049492699 132:0.0014940735 133:0.001484781 134:0.0021139914 137:0.00049492699 138:0.00028641353 145:0.00049492699 146:-0.0032726626 147:0.00049492699 148:7.2596129e-005 149:0.00049492699 150:0.0028719436 151:0.00049492699 152:0.00022416454 161:0.00049492699 162:2.3508392e-005 169:0.001484781 170:-0.00055162999 171:0.00049492699 172:0.00028963882 173:0.00049492699 174:2.2887837e-006 181:0.00049492699 182:5.7447774e-005 185:0.00098985399 186:8.2562998e-005 187:0.00049492699 188:-0.00039098138 191:0.001979708 192:-0.0020252143 197:0.026231131 198:0.0071277865 201:0.00049492699 202:0.0016595469 203:0.00049492699 204:-0.00022173465 211:0.00049492699 212:0.0025987865 #
0.95451030572829854 11:0.25 12:0.18643837 89:0.057628062 90:0.32515332 91:0.00027839644 92:8.7089204e-005 93:0.0045935414 94:-0.022300422 #
0.95451030572829854 3:0.12828508 4:-0.068101704 7:0.0008908686 8:0.00011234297 11:0.25478843 12:0.19000934 13:0.0017817372 14:-0.00094465411 19:0.0008908686 20:-0.00013584047 23:0.0017817372 24:0.00057811599 25:0.0026726057 26:0.0035021708 27:0.0008908686 28:-0.00089078542 31:0.0035634744 32:0.0019331772 43:0.0017817372 44:-0.0012365247 51:0.0008908686 52:0.00021435598 59:0.0008908686 60:0.00039854812 65:0.0008908686 66:-0.00072574365 67:0.062806234 68:-0.35792616 69:0.0004454343 70:0.0014265031 71:0.0008908686 72:-0.0025069634 77:0.0004454343 78:-0.00048435511 89:0.12383074 90:0.69868696 91:0.0004454343 92:0.00013934272 93:0.00311804 94:-0.015137257 95:0.0004454343 96:-0.00051624188 97:0.0004454343 98:-2.7330758e-005 115:0.0004454343 116:0.00039136881 121:0.0008908686 122:-0.00055853301 127:0.0013363028 128:-0.0065351375 133:0.0004454343 134:0.00063419744 145:0.0008908686 146:-0.0058907927 149:0.0008908686 150:0.0051694983 171:0.0008908686 172:0.00052134984 191:0.0004454343 192:-0.00045567317 203:0.0004454343 204:-0.00019956118 213:0.0004454343 214:-0.00018514672 #
0.95451030572829854 3:0.0037119526 4:-0.0019705354 11:0.16295472 12:0.12152404 67:0.0074239052 68:-0.042308055 89:0.32590944 90:1.8388703 #
-0.95451030572829854 11:0.40000001 12:0.29830137 #
0.95451030572829854 3:0.0022271716 4:-0.0011823212 11:0.10888394 12:0.081200577 67:0.013363029 68:-0.0761545 89:0.65330362 90:3.6861181 #
-0.95451030572829854 3:0.0080178175 4:-0.0042563565 7:0.00066815142 8:8.4257226e-005 11:0.28930959 12:0.21575361 31:0.0013363028 32:0.00072494143 57:0.00066815142 58:-0.00032315566 67:0.0080178175 68:-0.045692701 77:0.00066815142 78:-0.00072653266 89:0.28730512 90:1.6210543 93:0.0020044544 94:-0.0097310934 145:0.00066815142 146:-0.0044180946 149:0.00066815142 150:0.0038771238 201:0.00066815142 202:0.0022403882 #
0.95451030572829854 25:0.26241136 26:0.34386268 127:0.20567375 128:-1.0058396 #
0.95451030572829854 67:0.11581292 68:-0.66000569 89:0.28418708 90:1.6034614 #
-0.95451030572829854 3:0.069320716 4:-0.036799747 11:0.30567929 12:0.22796138 67:0.069320716 68:-0.39505148 89:0.30567929 90:1.7247263 #
-0.95451030572829854 3:0.10213172 4:-0.054217871 11:0.32643971 12:0.24344353 #
-0.95451030572829854 11:0.22023809 12:0.16424333 93:0.11904762 94:-0.57794458 #
-0.95451030572829854 3:0.39393941 4:-0.20912755 67:0.060066141 68:-0.34231064 71:0.00053992035 72:-0.0015193719 #
0.95451030572829854 11:0.16062176 12:0.11978424 91:0.36269429 92:0.11345964 #
0.95451030572829854 3:0.20489977 4:-0.10877355 11:0.14699332 12:0.10962077 13:0.0008908686 14:-0.00047232705 15:0.0035634744 16:-0.0032681606 21:0.0008908686 22:-0.00060653727 23:0.013363029 24:0.00433587 25:0.0008908686 26:0.0011673903 27:0.0035634744 28:-0.0035631417 29:0.0026726057 30:-0.0025018225 31:0.0044543431 32:0.0024164715 33:0.0026726057 34:-0.0023470763 35:0.0017817372 36:7.4121905e-005 39:0.0008908686 40:-4.1201376e-005 43:0.0026726057 44:-0.001854787 47:0.0008908686 48:-0.00031516334 49:0.0008908686 50:9.2479546e-005 51:0.0017817372 52:0.00042871197 55:0.0008908686 56:-0.00060688559 59:0.0026726057 60:0.0011956444 63:0.0026726057 64:-0.0007801273 67:0.087750554 68:-0.50008124 69:0.0089086862 70:0.028530061 71:0.0057906457 72:-0.016295264 89:0.070378616 90:0.39709547 93:0.00311804 94:-0.015137257 95:0.0004454343 96:-0.00051624188 103:0.0017817372 104:0.0018704811 119:0.0004454343 120:-0.00010930761 121:0.0066815144 122:-0.0041889977 127:0.0004454343 128:-0.0021783793 133:0.0004454343 134:0.00063419744 135:0.0013363028 136:-0.00071180006 137:0.0013363028 138:0.00077331654 145:0.0008908686 146:-0.0058907927 149:0.0013363028 150:0.0077542476 151:0.0013363028 152:0.00060524425 155:0.0008908686 156:0.00064922863 167:0.0004454343 168:-0.00012059108 171:0.0013363028 172:0.00078202476 181:0.0004454343 182:5.1702998e-005 185:0.0004454343 186:3.715335e-005 187:0.0004454343 188:-0.00035188324 191:0.0004454343 192:-0.00045567317 197:0.0004454343 198:0.00012103788 203:0.0013363028 204:-0.00059868355 211:0.0013363028 212:0.007016723 #
-0.95451030572829854 3:0.068671122 4:-0.036454905 11:0.34799555 12:0.25951889 67:0.054936897 68:-0.31307963 89:0.27765405 90:1.5666002 93:0.00074239052 94:-0.0036041087 #
-0.95451030572829854 3:0.049888641 4:-0.026483996 11:0.34743875 12:0.25910366 19:0.0008908686 20:-0.00013584047 57:0.0008908686 58:-0.00043087424 63:0.0008908686 64:-0.00026004243 #
0.95451030572829854 11:0.25 12:0.18643837 89:0.022626037 90:0.1276623 93:0.00010123507 94:-0.0004914694 #
0.95451030572829854 3:0.0012527839 4:-0.0006650557 11:0.18624721 12:0.1388945 67:0.00041759465 68:-0.0023798281 89:0.040367484 90:0.2277644 91:0.0011135858 92:0.00034835681 93:0.020601336 94:-0.10001402 #
-0.95451030572829854 43:0.31400967 44:-0.21792254 171:0.053140096 172:0.031098392 #
0.95451030572829854 3:0.18930958 4:-0.10049731 11:0.14402376 12:0.10740621 67:0.094654791 68:-0.5394277 89:0.072011881 90:0.40631077 #
-0.95451030572829854 3:0.03919822 4:-0.020808853 11:0.34654787 12:0.25843927 15:0.0026726057 16:-0.0024511204 19:0.0008908686 20:-0.00013584047 21:0.0008908686 22:-0.00060653727 25:0.0008908686 26:0.0011673903 27:0.0008908686 28:-0.00089078542 31:0.0008908686 32:0.00048329431 39:0.0026726057 40:-0.00012360413 41:0.0008908686 42:-0.00057476322 49:0.0008908686 50:9.2479546e-005 57:0.0017817372 58:-0.00086174847 65:0.0008908686 66:-0.00072574365 #
-0.95451030572829854 43:0.20689656 44:-0.1435861 171:0.05172414 172:0.030269751 #
-0.95451030572829854 3:0.029398663 4:-0.01560664 11:0.36169264 12:0.26973355 15:0.0026726057 16:-0.0024511204 23:0.0008908686 24:0.00028905799 27:0.0017817372 28:-0.0017815708 39:0.0008908686 40:-4.1201376e-005 41:0.0008908686 42:-0.00057476322 43:0.0008908686 44:-0.00061826233 63:0.0008908686 64:-0.00026004243 #
0.95451030572829854 11:0.19923061 12:0.14857692 39:0.0012148208 40:-5.6183693e-005 47:0.00060741039 48:-0.0002148841 51:0.071674429 52:0.017245913 89:0.0311804 90:0.17592837 91:0.00040494028 92:0.00012667521 93:0.0016197611 94:-0.0078635104 167:0.00020247014 168:-5.4814129e-005 181:0.00010123507 182:1.1750682e-005 187:0.0061753392 188:-0.0048783813 191:0.0057703988 192:-0.0059030391 #
-0.95451030572829854 3:0.022908049 4:-0.012161018 7:0.00095450209 8:0.00012036747 11:0.38370982 12:0.28615293 15:0.0028635061 16:-0.0026262007 21:0.013363029 22:-0.0090980595 23:0.0019090042 24:0.00061940996 31:0.00095450209 32:0.00051781529 49:0.00095450209 50:9.9085228e-005 55:0.00095450209 56:-0.00065023452 #
0.95451030572829854 3:0.067080282 4:-0.035610389 11:0.19482447 12:0.14529103 67:0.012885778 68:-0.073434696 69:0.0025453388 70:0.0081514465 71:0.0028635061 72:-0.0080580972 89:0.043111678 90:0.2432479 91:0.00047725104 92:0.00014929578 93:0.0095450208 94:-0.046338543 #
0.95451030572829854 11:0.2173913 12:0.16212031 89:0.039895419 90:0.22510089 91:0.00019366709 92:6.0583796e-005 93:0.0033891741 94:-0.01645354 #
-0.95451030572829854 11:0.375 12:0.27965754 #
0.95451030572829854 11:0.21875 12:0.16313356 89:0.025612472 90:0.14451259 91:0.00097438751 92:0.00030481222 93:0.0046631405 94:-0.022638308 #
-0.95451030572829854 3:0.0080178175 4:-0.0042563565 11:0.39198217 12:0.29232207 #
0.95451030572829854 3:0.017371938 4:-0.0092221051 11:0.18262807 12:0.13619551 67:0.017371938 68:-0.099000849 89:0.18262807 90:1.0304376 #
0.95451030572829854 11:0.3298969 12:0.24602176 93:0.20103092 94:-0.97595179 #
-0.95451030572829854 67:0.04454343 68:-0.25384834 89:0.45545658 90:2.5698109 #
-0.95451030572829854 17:0.91071427 18:1.0848236 113:0.0011595547 114:0.0009966155 #
-0.44768731126426925 63:0.67339337 64:-0.19656193 209:0.0027326238 210:-0.01179043 211:0.0013033897 212:0.0068439012 #
-0.95451030572829854 3:0.50424927 4:-0.2676869 71:0.028328612 72:-0.079718597 #
-0.95451030572829854 3:0.033825167 4:-0.017956503 11:0.15367483 12:0.11460353 67:0.033825167 68:-0.19276609 89:0.15367483 90:0.8670755 #
0.95451030572829854 11:0.23287672 12:0.17366861 93:0.1780822 94:-0.86454177 #
-0.95451030572829854 11:0.1 12:0.074575342 89:0.39910913 90:2.251883 93:0.0008908686 94:-0.0043249307 #
-0.95451030572829854 3:0.0044543431 4:-0.0023646425 11:0.19554566 12:0.14582884 67:0.0089086862 68:-0.050769668 89:0.3768374 90:2.12622 93:0.014253898 94:-0.069198892 #
-0.95451030572829854 11:0.40000001 12:0.29830137 89:0.2 90:1.1284548 #
